2
24 25 25 6 
        6.188790e+00         1.852842e-01         6.169397e+00         1.774388e-01         1.378704e+01         1.250548e-01         1.444749e+01         1.172362e-01         3.257557e+01         7.728722e-02         3.232831e+01         8.223278e-02         3.101714e+01         7.966223e-02         1.025386e+01         8.333040e-02         1.481986e+01         6.778440e-02         1.380480e+01         6.420538e-02         3.003149e+01         3.172979e-02         2.958666e+01         3.075835e-02        -5.336634e+00         5.630567e-02         6.999787e+00         4.934288e-02        -5.381092e+00         4.438408e-02        -6.478898e-01         3.970515e-02        -1.741158e+01         2.539473e-02        -2.945075e+01         2.498488e-02        -2.654401e-01         2.898668e-02        -7.372561e+00         2.837487e-02        -1.919348e+01         2.613819e-02         4.741144e+00         3.339523e-02         1.764448e-01         3.282267e-02        -4.296837e+00         3.246600e-02         0.000000e+00         1.000000e+00         0.000000e+00         1.000000e+00         0.000000e+00         1.000000e+00         0.000000e+00         1.000000e+00         0.000000e+00         1.000000e+00         0.000000e+00         1.000000e+00 
1000
  -1.428847e-01    2.018068e-01    8.040361e-01    9.833974e-01    5.753202e-01   -8.612759e-01    2.482287e-01    4.692970e-01    1.653867e+00    1.488904e+00    1.193099e+00    6.832530e-01   -1.145179e-01    7.125036e-01   -1.642684e-01   -9.835386e-01   -3.702367e-01   -1.022068e+00   -4.334755e-02    1.177405e+00    2.899128e-01   -1.034734e+00    7.573186e-01   -9.744319e-01   -3.771270e-01 
  -1.080056e+00    7.474888e-01    2.373259e-01    1.125213e+00    2.604084e-01   -4.207376e-01    3.120622e-01   -1.563614e+00    4.076683e-01    1.180018e+00    5.015150e-01    2.127150e-01   -4.508454e-01    1.134165e-01   -8.086731e-02   -1.121301e+00   -6.895766e-01   -6.275121e-02   -9.272585e-01    4.293220e-01   -1.827148e-01    1.983692e-01    4.852930e-01   -7.988820e-01   -7.433453e-01 
  -9.048889e-01    1.001107e+00    7.762130e-03    7.878177e-01    4.984090e-01   -4.099011e-01    2.591257e-01   -8.282498e-01    2.923419e-01    7.272925e-01    3.520466e-01   -6.095291e-02   -8.237272e-01    5.725869e-01    1.927405e-01   -5.563903e-01   -5.332095e-01   -4.627240e-01   -8.174847e-01    9.724416e-01   -2.298084e-01    3.161309e-02    3.438343e-01   -5.104294e-01   -5.466216e-01 
  -6.698656e-01    5.541029e-01   -1.286852e-01   -4.571430e-01   -1.919000e-01    2.147024e-01    1.551078e-02   -1.049589e+00   -1.269636e+00    3.510447e-01    6.129082e-01    2.550987e-01   -2.220254e-01    6.682080e-01    7.272631e-01    8.473535e-01   -1.757179e+00    3.992489e-01    1.295152e+00    6.866959e-01   -6.118998e-01   -1.130044e+00    2.359428e-01   -4.197302e-01    2.916647e-01 
  -2.544969e-01    4.883236e-01   -2.578161e-01   -4.869463e-01   -3.616439e-02    7.844082e-01   -3.422474e-01   -1.041194e+00   -9.254239e-01    9.995479e-01    1.295719e+00    4.800232e-01   -4.719268e-01    4.312954e-01    7.208158e-01    6.994218e-01   -2.207527e+00    3.605803e-01    1.449150e+00    1.035695e+00   -4.851383e-01   -1.059830e+00    3.090233e-01   -2.323469e-01    2.405841e-01 
  -4.981596e-01    3.871725e-01    1.860555e-01   -8.651972e-01   -1.764944e+00   -9.551178e-02   -2.623480e-01    6.996398e-01   -5.066173e-01   -1.058342e+00    1.714986e+00   -3.275866e-01   -3.474962e-01    9.568053e-01    1.010331e+00    2.687882e-01   -5.117542e-01   -7.203246e-01    7.020733e-01   -1.021231e+00   -1.053255e+00    1.234753e-01    5.035256e-01    8.787153e-01    8.376104e-02 
  -1.372933e-01    5.351172e-01    1.969443e-01   -2.485287e-01   -1.088631e+00   -2.702328e-01    4.825505e-01    4.494304e-01   -1.261414e+00    2.608892e-01    1.585928e+00   -7.537559e-01   -3.171424e-01    1.275410e+00    1.520690e+00    7.086938e-01   -8.217049e-01   -6.958387e-01    3.591015e-01    5.484809e-01   -1.090038e+00   -5.786225e-01    1.122977e+00   -6.718262e-02    2.493323e-01 
  -6.550043e-01    4.242887e-01    1.526515e-01   -7.435063e-01   -1.716686e+00   -3.921568e-01    1.050595e-02    1.068211e+00   -7.764438e-01   -7.971532e-01    1.661357e+00   -3.386239e-01   -4.738445e-01    1.051227e+00    1.093866e+00    2.384988e-01   -3.120351e-01   -3.593121e-01    5.909915e-01   -6.005883e-01   -1.059938e+00   -1.819874e-01    5.249064e-01    1.080109e+00    1.302772e-02 
  -2.386966e-01    2.295410e-02    9.413211e-01    5.722279e-02    3.261183e-01   -1.043466e+00    8.906966e-01   -1.202126e-01    2.225634e-01    5.892903e-01    9.615138e-02   -5.814197e-01    1.438207e-01    3.859691e-01    4.066243e-01   -5.827003e-01    1.510272e-01   -6.720262e-01   -6.375608e-01    6.885789e-01   -5.940364e-01    5.662613e-01    1.601102e-01   -4.401089e-01   -4.165032e-01 
  -2.902453e-01    8.104781e-02    8.000399e-01   -5.089468e-02   -1.216124e-02   -5.172434e-01   -2.735320e-01    8.213016e-01    2.828875e-01   -6.335255e-01    5.775157e-01   -3.162151e-01   -3.937401e-01    4.737242e-01    1.539319e+00   -1.633326e-01    2.708535e-01   -1.076990e+00   -9.029838e-01   -3.430333e-01   -1.278859e+00    5.504701e-01    6.094845e-01    5.139841e-01   -5.247653e-01 
   1.244974e+00   -1.798172e+00   -3.661837e-01   -1.367657e+00   -7.022480e-01    6.607565e-01   -2.538896e-01    2.467768e+00   -8.863634e-01   -8.820678e-01   -1.340377e-01   -1.158314e+00    1.048792e+00   -4.250405e-01   -1.507271e-01    1.805072e+00    3.396079e-01   -1.042879e-02    1.723988e+00   -5.570291e-01   -1.509850e-01   -4.923745e-01   -8.373969e-01    3.845892e-01    1.520896e+00 
  -5.853780e-01    7.016645e-01   -7.189252e-01   -3.503336e-01   -4.994597e-01    1.120792e+00   -7.516316e-01   -1.364359e+00   -4.928538e-01   -3.867271e-02    8.833594e-01    7.386738e-01   -2.995975e-01    1.618351e-01   -1.081687e-01   -2.453469e-02   -8.871083e-01    5.732885e-01    9.841572e-01   -5.096194e-01    3.134872e-01   -6.919728e-01    6.196210e-01    8.916440e-01   -1.373199e-01 
  -9.041666e-01    9.244937e-01   -7.512067e-01   -2.087133e-01   -1.967973e-01    6.620916e-01   -5.098455e-01   -1.443742e+00   -4.438500e-01   -2.059789e-01    7.655615e-01    8.541280e-01   -6.541810e-01    7.756451e-01   -2.239430e-01   -1.047457e-01   -9.537601e-01    9.028766e-01    4.999795e-01   -1.233604e-02    4.283992e-01   -1.145391e+00    1.391415e-01    8.048181e-01   -5.179037e-01 
  -2.775507e-02   -3.363485e-03    6.828752e-02    2.887104e-01    1.493860e+00   -5.407575e-01    6.628994e-01   -2.350598e+00   -3.907457e-01    2.635507e+00   -4.478577e-01    3.065231e-01    3.600870e-01   -1.861684e-01   -3.787416e-01   -1.810518e-01   -2.275950e+00   -1.721199e-01   -1.032531e-01    2.585466e+00    4.003541e-01   -8.381298e-01    2.754276e-01   -2.208755e+00   -1.024229e-01 
   7.873353e-02   -1.659631e-01   -5.500579e-02    2.955386e-01   -1.708879e+00    3.487186e-02   -4.321582e-01    1.247915e+00   -3.968492e-01   -1.124215e+00    4.438498e-01   -5.483718e-01   -1.804762e-01    7.310441e-01    1.715623e-01   -4.338131e-01    1.320580e+00   -2.270882e-01    3.436398e-01   -1.447577e+00   -3.985589e-01    5.176100e-01    4.567977e-01    1.340866e+00   -3.457112e-01 
   2.690322e-01   -2.095221e-01    7.135820e-02   -4.959066e-01    3.291761e-01    3.494678e-01   -6.185391e-01    1.030944e+00    1.188719e+00   -2.038318e+00   -5.853769e-01    2.435507e-01   -1.381980e-01   -3.226282e-01    4.898053e-01    3.767706e-02    1.673744e+00   -2.607078e-02   -5.423469e-01   -1.688778e+00   -1.246497e-01    1.733864e-01   -1.025170e-01    1.465173e+00    5.617463e-01 
   1.149395e-01   -5.152423e-01    2.759431e-02   -1.458492e+00    4.383638e-01    7.682176e-02    2.199200e-01   -7.358072e-02   -8.887545e-01    3.137803e-01    4.974114e-01    4.113532e-01    2.778537e-01    1.629288e-01    3.252386e-01    1.385868e+00   -1.251442e+00   -6.659522e-02    1.349414e+00    6.389421e-01   -7.593073e-01   -1.265200e+00   -2.089881e-01   -2.126840e-01    9.331809e-01 
   1.472290e-01   -2.350665e-02    1.250704e+00    1.143231e+00    1.425582e+00   -1.469462e+00    1.673930e+00   -6.584302e-01    3.430566e-01    1.973053e+00   -3.564603e-01   -5.806481e-01    4.679979e-01   -6.957101e-02    1.461525e-01   -1.357966e+00   -1.835263e-02   -1.191232e+00   -1.914962e+00    1.926057e+00   -1.769606e-01    1.187631e+00    3.176713e-01   -2.447274e+00   -4.477604e-01 
   3.455991e-01   -1.171404e-01    1.083589e+00    8.866380e-01    1.238432e+00   -1.172483e+00    1.484847e+00   -1.014128e+00    2.021713e-01    2.226259e+00   -4.150151e-01   -1.194204e-01    3.586251e-01   -7.196658e-01    1.990414e-01   -3.555038e-01   -3.726100e-01   -1.122999e+00   -9.155483e-01    2.014423e+00    2.761541e-01    3.381481e-01   -1.679920e-01   -2.656477e+00    4.584225e-02 
   1.924056e-01    3.392558e-01   -6.202207e-01   -1.238515e+00    1.051965e-01    1.164131e+00    2.493844e-01   -1.014699e+00   -1.743560e+00    5.255286e-01    5.859628e-01    4.448482e-01   -3.650581e-02    1.724745e-01    1.531667e-01    1.765218e+00   -2.077579e+00    6.099744e-01    2.022728e+00    8.830213e-01    1.787110e-01   -2.220561e+00    3.439105e-01   -1.721777e-01    6.022394e-01 
  -1.263180e-02   -3.576801e-01    7.288934e-01    8.598745e-01    2.149879e-01   -4.447237e-01    9.500373e-01   -2.477019e-01    1.133424e+00    1.168222e+00   -1.157624e+00   -2.071495e-01    2.575545e-02   -6.615892e-01   -4.238655e-01   -1.213598e+00    1.860488e-01   -5.268385e-01   -1.428193e+00    1.304240e+00    1.472624e-01    8.297006e-01   -5.018006e-01   -1.071861e+00   -5.627342e-01 
   2.521802e+00   -2.680854e+00   -7.141649e-01   -1.315768e+00   -1.015867e-01    3.242448e-01    5.403928e-01    3.015701e+00   -7.682723e-01    2.392385e-01   -1.644498e+00   -1.244260e+00    2.221363e+00   -1.337319e+00   -1.660046e+00    1.115447e+00    1.063197e+00    4.183314e-01    1.279487e+00    1.650988e-01    1.372155e+00   -1.128974e-01   -1.861218e+00   -2.129907e-01    1.646750e+00 
  -2.282577e-01    1.278931e-01   -1.611880e-01    2.819871e-01   -5.008718e-01    3.569232e-01    5.741531e-01   -6.300639e-01   -1.239822e-01    3.438851e-01    2.128592e-01   -2.084636e-01    2.780508e-01   -1.634048e-02   -3.908982e-01    3.077357e-01   -6.754162e-01    3.290782e-01    4.813726e-01    3.961885e-01    3.225138e-01   -4.304732e-01    2.808599e-01   -3.936499e-01    2.404051e-01 
   5.576746e-03    4.654278e-02   -3.805082e-01   -2.072226e-01   -3.186310e-01    2.264033e-01    6.924542e-01   -6.711927e-01   -2.129963e-01    7.178710e-01   -3.427154e-01    8.990223e-02    2.491303e-01   -2.268949e-01   -5.433275e-01    1.062223e-01   -4.441404e-01   -3.370386e-02    4.331872e-01    5.499373e-01    2.392162e-01   -2.165932e-01   -1.921487e-01   -3.564660e-01    1.723957e-01 
   2.853908e-01   -3.962849e-01   -3.326747e-01    1.236135e-01    1.098093e-01    3.211869e-01    4.924289e-01   -3.934252e-01   -1.427050e-01    5.371637e-01   -4.635099e-01   -3.263570e-02    2.788721e-01   -1.015185e-02   -5.463012e-01   -3.546304e-01    2.189839e-01    1.506710e-01    2.061995e-01    2.735595e-01    6.521391e-01    7.796598e-02   -2.630129e-01   -4.370071e-01   -2.742413e-01 


   7.397544e-02   -1.521965e-01    9.257839e-02    6.618553e-01    7.895005e-01    6.098289e-02    2.669193e-01    1.139419e-03    2.765285e-02    7.266509e-02    3.602552e-01    4.024389e-01    4.755484e-02   -2.995373e-01    4.364899e-01    2.634214e-01   -1.423071e-01   -3.646921e-01    4.038310e-01    2.621701e-01    4.548315e-01   -7.482923e-02    9.463800e-02   -6.513002e-02    3.379826e-01 
  -5.337670e-01    1.814874e+00   -1.878423e+00    7.209717e-02   -9.278623e-01    1.390458e+00   -6.266727e-01    2.367422e-01   -6.956063e-01   -1.981035e-01    7.997994e-01    1.673394e+00    1.744256e+00   -8.272499e-01    1.623503e+00   -6.353253e-01   -2.187512e-01   -1.678837e+00   -5.133527e-01    6.932967e-01    1.460733e+00    2.445804e-01    1.570631e+00   -6.751319e-02   -3.708690e-01 
   3.999463e-01   -1.981792e+00    2.455396e+00    5.325709e-01    1.462434e+00   -1.654384e+00    5.306188e-01   -3.360162e-01    1.565032e+00    3.033392e-01   -1.005445e-01   -1.021183e+00   -2.020144e+00    1.203940e+00   -6.312339e-01    8.338926e-01    4.716006e-01    1.612159e+00    8.309327e-01   -6.605257e-01   -5.351544e-01   -1.030444e-01   -2.109685e+00   -1.104297e-01    1.411558e+00 
   1.624214e+00   -2.048423e-01   -2.557546e-01    3.012520e-01    2.991799e-01   -5.585358e-01   -9.801147e-01    1.422237e+00    1.593795e-01   -1.677149e+00   -7.623189e-01   -1.290250e+00    4.481578e-01   -3.144196e-01    5.546214e-01   -8.829448e-01    9.141892e-01   -5.872387e-01    1.356423e+00   -1.116086e+00    8.804842e-01    2.352578e-01    4.465585e-01    1.481975e+00   -8.105869e-01 
   1.882771e+00   -1.181510e+00    9.888333e-01    4.344645e-01    1.818087e+00    1.830290e-02   -2.184148e-02    7.020375e-02    1.518272e-02   -9.367379e-02    1.153064e+00    4.113166e-02   -1.012942e+00   -4.281896e-01   -7.485696e-01   -1.080435e-01    9.707146e-01    7.573019e-01    1.758157e+00   -1.729507e+00   -6.881509e-01   -1.545705e+00   -1.175087e+00    5.439985e-01   -5.852361e-01 
   1.104296e+00    1.861006e-01   -4.766647e-01    2.685415e-01    1.469895e+00    1.291658e+00   -1.325072e+00    1.002047e-01   -1.753817e+00    3.953186e-01   -4.973138e-01   -3.723184e-01   -1.116825e+00   -3.143838e-02    2.517677e+00   -7.913705e-01    5.559335e-01    7.579236e-01   -4.930760e-01   -7.841483e-01    2.471465e+00   -5.895568e-01    5.741435e-01    1.665814e-01    1.290589e+00 
  -1.828901e+00    1.208190e-01    1.705223e-01    4.227485e-01    7.023373e-02    3.359053e-01    1.688822e+00   -1.830543e+00   -2.225825e-03    1.269760e+00    1.329593e+00    1.641765e+00   -7.014949e-01   -1.488460e-02   -9.422806e-01    1.673244e+00   -1.798813e+00    4.620217e-01   -8.504256e-01    1.884629e+00   -1.992161e-01    5.799871e-01    1.469858e-01   -1.967222e+00    1.762258e+00 
   1.032612e+00    6.783117e-01   -4.648722e-01    3.742370e-01    3.613151e-01   -1.201895e-02   -1.521347e+00    1.398412e+00    1.884128e-01   -1.158386e+00   -3.327268e-01   -1.697256e-01   -1.020451e-04    3.150961e-01    1.629233e+00   -1.927198e+00    4.051304e-01   -3.111179e-02    1.432190e+00   -6.592124e-01    1.365436e+00   -1.461162e+00    3.193149e-01    9.760189e-01   -6.921627e-01 
  -1.183110e+00    2.001344e+00   -2.152400e+00   -4.497761e-01   -3.820958e-01    4.774473e-01    1.325591e+00    6.659483e-01   -4.059387e-01   -2.873635e-01    1.815351e+00    7.256463e-01    3.932178e+00   -2.729618e+00   -5.754976e-01    1.245436e+00   -3.066460e-01   -3.620390e+00   -5.852850e-01    8.740682e-01   -3.653142e-01    2.554012e+00    1.817751e+00    4.628556e-02   -2.395087e+00 
   2.045788e+00   -9.252105e-01    7.348640e-01    8.606260e-01    2.689231e+00    1.304429e+00    7.919029e-01    1.618301e-02   -1.309847e+00    6.184025e-02    1.817114e+00   -2.001593e-01   -1.201601e-01   -1.804742e+00   -3.878498e-01    8.240455e-01    7.959296e-01   -4.092155e-01    4.436077e-01   -1.238813e+00   -2.363616e-01    7.707368e-01   -9.897777e-01   -2.233353e-01   -1.130146e+00 
   2.972784e-01    2.382552e-01   -4.170926e-01   -4.084706e-02   -4.160724e-01   -3.315519e-01   -2.852344e+00    1.125911e+00    2.017409e-01   -8.659940e-01   -1.651509e+00    1.008850e+00   -1.558496e+00    2.014864e+00    2.583108e+00   -2.115225e+00    4.832953e-01    1.680092e+00    1.211153e+00   -6.400988e-01    2.042099e+00   -3.754411e+00   -7.607851e-02    1.248145e+00    1.575198e+00 
  -1.599355e+00   -1.073409e+00    6.609100e-01    3.615879e-01   -8.340047e-01   -2.827679e+00    4.408163e-01    4.000391e-01    2.946746e+00   -8.711735e-02   -9.897872e-01   -4.885790e-01    3.144150e-01    2.183881e+00   -1.220885e+00   -5.767122e-02   -4.521480e-01    5.393761e-01    1.160241e+00    1.376715e+00   -9.684101e-01   -1.041804e+00   -1.008939e+00    2.585104e-01    1.317889e+00 
   3.388482e-01   -9.352566e-01    1.007274e+00    4.671887e-01    1.133679e+00    7.342551e-02    3.856575e-01   -9.349209e-01   -3.627539e-01    8.542773e-01    5.063512e-02   -2.992862e-01   -1.341065e+00    3.305756e-01   -8.985747e-02    4.890346e-01   -2.583277e-01    1.086190e+00   -1.867096e-01   -2.046631e-01   -4.254612e-02    7.526301e-01   -5.412340e-01   -1.072516e+00    1.202827e+00 
  -7.439780e-01    1.353198e+00   -1.667908e+00    2.597458e-01   -1.829404e-01    9.307881e-01   -8.660090e-01   -9.054652e-02   -1.116808e+00   -2.477134e-01    6.617382e-01    1.590779e+00    1.499381e+00   -1.847944e-01    1.666799e+00   -9.638358e-01   -4.566022e-01   -8.897910e-01   -3.568208e-01    3.465022e-01    1.514796e+00   -6.249796e-01    1.206222e+00    3.216247e-01   -1.334825e-01 
  -3.677698e-01   -6.641893e-01    1.124243e+00    1.333806e-01    3.334003e-02   -1.589324e+00    5.672930e-01    1.142247e-01    1.813074e+00   -5.094709e-01   -5.383887e-01   -1.076864e+00   -3.202564e-03    9.440513e-01   -1.043365e+00    1.362200e-01   -1.525808e-01    2.372574e-01    1.369193e+00    6.299945e-01   -1.021521e+00   -5.436523e-01   -1.117791e+00    4.015180e-01    6.154169e-01 
   1.597323e-01   -6.504558e-01    1.050483e+00    3.185011e-01   -9.928069e-01   -1.720936e+00   -4.898223e-01    1.173018e+00    1.618804e+00   -1.491791e+00   -2.052067e+00   -1.861170e+00    2.238591e-01    4.208954e-01    1.777611e-01    1.372517e-01    6.153777e-01   -3.712083e-01    6.193523e-01   -4.191566e-01    2.186886e-01    1.180811e+00   -8.455539e-01    1.048304e+00    3.436737e-01 
  -2.067633e+00    1.635218e+00   -1.410305e+00   -1.873863e-01   -1.947350e+00   -4.069937e-01   -3.370204e-01   -4.901681e-02    1.520159e-01    2.658372e-01   -1.119936e+00    7.920783e-01    7.847469e-01    9.582506e-01    1.563119e+00    7.304407e-02   -1.593233e+00   -9.503440e-01   -9.001311e-01    1.516209e+00    1.108085e+00    8.265996e-01    1.699235e+00   -1.114527e-01    2.108750e+00 
   1.869327e+00    5.307156e-01   -7.726604e-01    3.386874e-01    1.718652e+00    1.787598e+00    1.291936e+00    6.064513e-01   -1.834067e+00   -5.829296e-01    2.230810e+00    2.871549e-01    1.845933e+00   -2.997562e+00   -1.616420e-01    8.240272e-01    1.224163e+00   -2.319426e+00   -4.353508e-01   -1.180654e+00   -5.875718e-02    2.141776e+00    4.601510e-01    9.327927e-01   -2.747531e+00 
  -1.270953e+00   -6.042484e-02    2.236497e-01    4.111725e-01    9.939629e-01    4.477450e-01    1.127707e+00   -1.214259e+00   -3.742804e-01    1.566179e+00    1.293611e+00    1.757985e+00   -7.911434e-01    1.702063e-02   -6.186626e-01    9.908639e-01   -1.580470e+00    5.960041e-01   -7.255515e-01    1.065724e+00   -4.841327e-01   -5.433152e-02    4.080806e-01   -1.501107e+00    1.598711e+00 
  -3.171340e+00    1.942613e-01   -5.242165e-01    3.743002e-01   -1.794013e+00   -1.697388e+00    7.348197e-01   -1.228989e+00    1.695337e+00    1.314500e+00   -6.831969e-01    1.631665e+00    1.636904e-01    2.115812e+00    1.994967e-01    8.380221e-01   -1.939895e+00    1.396025e-02   -1.326652e-01    3.060749e+00   -3.721630e-01   -1.041190e+00    7.599783e-01   -8.131327e-01    2.743554e+00 
  -1.317643e-02    4.486448e-01    1.913104e-01    3.357979e-01   -7.202986e-01   -8.171394e-01   -2.609104e+00    6.812085e-01    7.448558e-01   -9.158566e-01   -2.075327e+00    3.887992e-01   -1.652831e+00    2.028616e+00    2.338074e+00   -2.087471e+00    1.874879e-01    1.385979e+00    1.206157e+00   -6.161339e-01    2.072709e+00   -2.941909e+00    5.415053e-01    1.060561e+00    1.194010e+00 
  -4.211503e-01    5.788872e-01   -3.844015e-01    6.971878e-01    1.272599e+00    1.565468e+00    3.018670e-01   -1.209250e+00   -1.107806e+00    1.316287e+00    1.912320e+00    2.363097e+00   -8.526653e-01   -1.841778e-03    3.758209e-02    1.657303e-01   -9.523196e-01    5.544264e-01   -2.055470e-01    4.943779e-01    1.444583e-01   -1.546269e+00    5.281382e-01   -1.254317e+00    1.699813e-01 
   1.199061e+00   -4.621682e-02    4.496601e-02   -3.253548e-01    1.061358e+00    4.448111e-01    2.272721e-01    1.656559e+00   -5.062523e-01   -1.433361e+00    1.094791e+00   -7.496218e-01    1.730798e+00   -1.842762e+00   -9.092513e-02   -2.221198e-01    1.910814e+00   -1.215548e+00    1.031324e+00   -1.954959e+00   -5.842950e-01    5.273329e-01   -2.488130e-01    1.427889e+00   -2.679710e+00 
   2.247990e-01   -1.180038e+00    1.165497e+00    6.843755e-01    1.590931e-01   -1.133328e+00   -2.934788e-01    7.329527e-01    1.430977e+00   -6.979282e-01   -8.715319e-01   -5.732794e-01   -3.202431e-01    1.150967e+00   -3.059096e-01   -1.593690e-01    3.472498e-01    7.598433e-01    1.589068e+00   -3.997159e-02   -6.837825e-01   -6.849145e-01   -1.006545e+00    6.838156e-01    6.340141e-01 
  -1.216420e+00   -2.075344e-01    4.181804e-01    5.862067e-01    3.410194e-01   -6.672954e-01    2.945877e+00   -9.281612e-01    8.433250e-01    9.644548e-01    2.195633e+00    2.629776e-01    1.934149e+00   -1.720534e+00   -2.414041e+00    2.530480e+00   -8.361936e-01   -1.190140e+00   -5.141694e-01    7.755655e-01   -2.153923e+00    2.416910e+00   -5.692386e-01   -8.736934e-01   -5.444939e-01 
  -1.140759e+00    1.665550e+00   -1.271925e+00    2.191909e-02   -1.089850e+00   -5.703930e-02   -1.890332e-01   -2.303596e-01   -3.372718e-01   -3.689611e-01   -2.300022e-01    7.637935e-01    1.401182e+00    8.386494e-02    1.498971e+00   -2.811907e-01   -9.205048e-01   -1.162634e+00   -9.563611e-01    1.017770e+00    1.206334e+00    4.948309e-01    1.271937e+00   -1.185809e-01    5.187641e-01 


  -3.101992e+00   -2.475820e+00   -3.959145e+00   -2.655732e+00   -2.865437e+00   -2.964183e+00 
  -5.485169e+00   -7.160730e+00    7.882795e+00    3.287884e+00   -1.352050e+01    5.950910e+00 
   3.891031e+00   -6.856041e+00    3.856745e+00   -6.940330e+00    6.447128e+00   -9.024607e+00 
  -7.382608e+00    4.342114e+00   -9.140144e+00    4.131992e+00   -9.079908e+00    7.030888e+00 
  -3.684721e+00   -2.469164e+00   -4.320134e+00   -2.974247e+00   -3.653812e+00   -2.826646e+00 
  -3.687345e+00   -7.488107e-01    3.213810e+00   -7.399509e-01   -1.594981e+01    1.172815e+00 
   6.061712e+00   -5.325796e+00    8.677085e+00   -5.419391e+00   -9.796294e+00   -3.084517e+00 
   4.513546e+00    3.289263e+00   -1.064351e+01    6.967417e+00   -5.850592e+00   -1.039584e+01 
  -7.900501e+00   -8.750681e+00    2.654818e+00    2.387309e+00    2.369575e+00    1.776670e+00 
  -9.291821e+00    3.203309e+00   -1.379853e+01    2.438617e+00    5.933471e+00   -1.187481e+00 
   5.194858e+00    5.690057e+00   -5.630935e+00   -5.150932e+00   -4.908160e+00   -4.851817e+00 
   2.721839e-01    1.833364e+00    3.487686e+00    1.434947e+00   -9.360017e+00   -1.087069e+01 
  -2.922655e+00    2.961268e+00    2.577830e+00   -8.943492e+00    8.608897e-01   -7.856830e+00 
   1.846210e+00   -9.258616e+00   -1.992509e-01    6.554414e+00    6.817432e+00   -1.349136e+01 
  -8.054940e+00    5.720188e+00   -9.174693e+00   -9.175163e+00    6.763353e+00    3.876624e+00 
   1.499430e+00   -1.084860e+01    2.223658e+00   -1.025655e+01   -1.117653e+00    5.627742e+00 
   4.942768e+00    2.350119e+00   -9.493777e+00    3.543612e+00   -5.104035e+00   -8.329194e+00 
  -9.242801e+00   -8.190233e+00    2.899461e+00    3.473262e+00   -3.032372e+00    3.817864e+00 
  -6.853770e+00    4.956681e+00   -4.817511e+00   -7.555617e+00   -6.066959e+00    7.726590e+00 
  -1.190368e+01    1.194787e+00    3.215033e-01   -2.123599e+00    4.517073e-01   -2.258810e+00 
   3.086239e+00    5.577068e+00   -9.912997e+00   -5.275044e+00    5.237875e+00   -8.478491e+00 
   2.177187e+00   -8.675768e+00    9.323801e-01   -9.012829e+00   -1.522583e+00    3.024318e+00 
   8.463276e+00   -6.817473e+00   -7.157308e+00    8.228739e+00   -5.160645e+00   -6.384368e+00 
   4.750730e+00   -5.767081e+00    3.630118e+00   -6.944778e+00    5.397647e+00   -8.553391e+00 
  -9.757651e+00   -7.775868e+00    2.025260e+00    2.147478e+00    1.732803e+00    2.055083e+00 
   2.125321e+00    9.456041e-01   -1.356368e+01   -1.070287e+01    3.290814e+00    2.957171e+00 


