2
24 25 25 7 
0
        6.578002e+00         1.667980e-01         6.635629e+00         1.535901e-01         1.404560e+01         1.281461e-01         1.463313e+01         1.273086e-01         3.199715e+01         5.745558e-02         3.126139e+01         5.218499e-02         3.033781e+01         5.725016e-02         8.379098e+00         5.548737e-02         1.467885e+01         4.043849e-02         1.353332e+01         4.801355e-02         3.223538e+01         2.895549e-02         3.163678e+01         2.876390e-02        -5.855320e+00         4.937211e-02         5.067262e+00         4.083333e-02        -4.796238e+00         4.105259e-02        -1.155654e+00         3.598326e-02        -2.347751e+01         1.991718e-02        -3.660219e+01         2.028945e-02        -3.113132e+00         2.485469e-02        -3.259644e+00         2.252455e-02        -2.032853e+01         1.754783e-02         4.071241e+00         2.625981e-02        -5.569700e-01         2.486548e-02        -5.108094e+00         2.375630e-02         0.000000e+00         1.000000e+00         0.000000e+00         1.000000e+00         0.000000e+00         1.000000e+00         0.000000e+00         1.000000e+00         0.000000e+00         1.000000e+00         0.000000e+00         1.000000e+00         0.000000e+00         1.000000e+00 
1000
  -1.265605e+00    2.888122e+00   -1.096161e+00    3.990342e-01    2.457536e+00    4.040521e+00   -2.713738e+00   -4.828772e-01   -1.068600e+00   -1.888551e+00   -1.524609e+00    2.755297e-01    8.788302e-01    1.114496e+00    3.979282e-01    6.254696e-01    2.040030e+00   -1.106507e+00   -1.421304e+00   -1.608414e+00    1.751651e+00    1.798647e+00    6.830867e-01   -1.783551e+00   -3.131702e-02 
  -4.357982e+00    7.844137e+00   -2.198513e+00    1.167688e+00   -4.531624e+00   -2.687172e+00    4.075782e+00   -5.820392e-02    2.832118e+00    8.221407e-02   -1.786451e+00   -3.786147e+00   -3.764883e+00   -3.663972e-02    1.764574e+00   -1.085335e+00   -2.408018e+00    6.075884e-01    5.778638e-02   -8.221893e-01    1.421305e+00    4.730703e-01    3.406093e-01    6.625997e-01   -5.772205e-01 
  -1.381152e+00   -2.135260e+00    7.698089e-01    6.009425e+00    4.931606e+00   -1.836552e+00    1.807315e+00    5.446784e-01    2.616869e+00    2.026512e-01   -2.725205e+00   -2.042254e+00   -3.096637e+00   -4.798296e-01   -2.092774e+00   -3.601650e-01   -2.220631e-01    1.351105e-01    2.418454e-01    2.550562e+00   -3.457712e+00   -6.846894e-01    1.479388e+00   -3.541201e+00   -1.797645e-01 
   3.716573e-01    1.580943e+00    1.395701e+00   -1.771671e+00    2.235768e-01   -9.081303e-01    7.751725e-01   -1.819868e+00   -1.395236e+00   -2.056214e-01    2.672006e-01   -1.250357e+00    1.560532e+00    5.677294e-01   -1.297081e+00    7.512053e-01   -3.448739e-01    9.766895e-01    2.140892e+00    1.197717e+00    8.518022e-02   -6.326583e+00   -4.355462e-01   -8.094205e-01   -3.027912e-01 
   8.799968e-01    5.282977e+00    6.188092e-01   -3.579623e+00   -2.802033e+00    8.039117e-02    7.365111e-01   -3.412153e+00   -1.580598e+00    7.342415e-01    6.639246e-01   -7.696912e-01    1.606019e+00    4.325594e-01    5.660367e-01    3.828854e-01   -1.626839e-01    7.613871e-02    1.403357e+00    1.542570e+00    2.266193e+00   -7.791947e+00   -8.774894e-01    1.998018e+00   -5.992832e-01 
  -8.614190e-01    5.905323e+00   -1.480770e+00   -1.030280e+00   -2.707835e+00   -2.458772e+00    3.039231e+00   -5.605720e+00    6.250538e-01   -2.190607e+00    1.959953e+00   -1.101425e+00    4.980111e-01    2.354428e+00    8.255635e-01   -1.769764e+00    1.599197e-01   -1.271063e+00   -1.443628e+00   -1.777022e-01    2.394065e+00   -6.601235e+00    7.450616e-01    1.560608e+00   -1.150870e+00 
  -5.620892e-01    5.168399e+00   -1.928677e+00   -9.165540e-01   -4.110646e-02   -1.979136e+00    3.375547e-01    4.585596e+00   -1.243608e+00   -1.884832e-01    1.476645e+00   -4.331503e-01   -2.641980e-01    3.151523e+00    4.533565e-01   -4.637687e-01   -1.499135e+00   -9.290850e-01   -1.232160e+00   -2.908247e+00    6.634574e-01    2.430557e+00   -8.019658e-01    2.044059e+00   -4.453494e-01 
  -8.699836e-01    5.661493e+00   -1.729831e+00   -8.889697e-01   -2.679944e+00   -2.589520e+00    3.132103e+00   -5.382096e+00    5.502043e-01   -1.726391e+00    1.775522e+00   -9.708307e-01    5.823674e-01    2.164582e+00    9.841479e-01   -1.718950e+00    4.558154e-01   -9.177490e-01   -1.514439e+00    4.256840e-01    2.234526e+00   -6.890974e+00    8.962739e-01    1.855274e+00   -1.154088e+00 
   1.138316e+00    9.315471e-02   -1.568519e+00   -2.855740e-01    8.389046e-01   -1.589115e+00    2.070097e-01    3.617658e+00    2.202000e+00    1.283017e+00   -5.927577e-01    9.480827e-02    1.468112e+00   -2.630100e-01    4.153613e-01   -3.506923e-01    1.016979e-01   -7.770808e-01   -9.791822e-01   -9.356919e-01   -1.434886e+00    3.940778e+00   -2.074243e-01    1.968596e+00   -8.837378e-01 
   3.185275e+00   -1.382922e+00    3.589948e+00   -8.189464e-01   -3.112493e-01   -1.132815e+00    3.660526e+00    5.342148e-01    3.021563e+00   -9.855701e-01    2.208147e+00   -4.053024e+00    1.205083e+00   -2.092231e+00    3.831967e+00    3.189297e-01    3.559368e+00   -2.249461e+00    1.975845e-02    1.395503e-01    1.625861e+00   -1.750635e+00    1.964635e+00   -1.230473e+00   -2.709011e+00 
  -1.910944e+00   -2.134726e-01    1.390080e+00    2.300292e+00    3.488148e+00   -2.049391e-02    4.665532e-01   -3.077895e+00   -3.288478e+00   -1.171151e+00    8.485129e+00   -5.141034e+00   -4.120432e+00    1.666998e+00   -5.361448e+00    1.616392e+00   -3.472785e+00    1.404886e+00    7.166628e-01    7.505460e-01    2.976839e+00   -3.487838e+00   -6.104076e-01   -3.268565e+00    2.692173e-01 
  -2.534956e+00    6.588223e-01    1.846686e-01   -1.244709e+00   -9.107967e-01   -8.491291e-02   -1.092821e+00   -2.327583e+00   -4.804723e-01   -4.688838e+00   -4.940111e+00    3.771917e+00   -9.176322e-01    1.139664e+00   -5.590411e-01    6.275537e-01   -2.139246e+00    2.677252e+00    3.960809e+00    2.807471e+00   -3.000668e-01   -3.452259e+00   -1.183476e+00    2.204678e+00    1.370436e+00 
  -2.248685e+00    3.191331e+00   -1.372200e+00   -2.044185e+00   -2.415895e+00   -2.576793e-01   -2.452558e+00   -7.608230e+00   -1.600473e+00   -5.160337e+00   -1.541405e+00    2.379334e+00   -2.763529e+00    1.975038e+00    6.112655e-01    8.898562e-01   -4.031574e+00    4.824815e+00    3.636484e+00    8.206031e+00    2.013151e+00   -4.261486e+00   -2.401510e+00    3.610231e+00    1.503936e+00 
  -4.028184e-02   -2.138530e+00    2.307439e+00    2.199183e+00    1.254496e+00    2.188213e+00   -1.105344e+00    2.093733e+00    7.002118e-02    9.208266e-01   -1.556664e+00   -2.992684e-01    1.477513e+00   -1.354484e+00   -5.795986e-01    6.014773e-01   -2.567140e+00    1.077735e+00    1.091771e+00    2.559392e+00    5.118265e-01    1.745303e+00   -7.027646e-01   -1.551916e+00   -8.957371e-01 
   1.978472e-02   -2.797017e+00   -2.010693e+00   -3.047159e-01   -1.344665e+00    7.831194e-01   -2.904144e-01   -8.927310e-02   -8.845636e-01   -2.462521e+00    1.384097e+00   -1.895361e-01   -8.801190e-01    2.542361e+00   -1.318520e+00    2.003146e-01    8.427263e-01   -1.696422e+00   -8.084318e-01   -5.787458e-01    1.088958e-01    2.114133e+00   -4.624997e-01   -8.860311e-01    8.831970e-01 
  -1.610896e+00   -1.096563e+00    1.640773e+00    2.642395e+00    4.455991e+00   -3.477086e-01   -9.493200e-01    2.840020e+00   -7.490357e-01   -8.733331e-01    2.716205e+00    1.663339e+00   -2.664843e+00    1.932535e+00   -6.730037e-01    1.521438e-01    1.451511e-01    1.578754e+00    2.480536e-01   -8.031891e-01   -1.654662e+00    3.087510e+00    1.457474e+00    3.003192e+00   -4.081432e-01 
   4.884207e-01   -3.914750e-01    1.066258e+00   -9.887948e-01    1.367856e+00   -1.077757e-01   -1.475101e+00   -1.762018e+00    8.114911e-03    4.889002e-01    1.122661e+00    5.086534e-01   -1.972028e-01    2.774597e+00    2.265834e+00    1.380923e-01   -8.455358e-01    4.721462e-01   -5.583197e-01    5.498096e-01   -3.073195e-01   -2.252714e+00    6.068265e-01    8.301729e-01    1.454212e+00 
   1.501888e+00    8.504022e-01   -4.386783e+00   -1.407447e-01    6.129462e-01    4.037673e-01   -3.362049e+00    2.519484e+00    1.422329e+00    4.167490e+00   -8.490410e-01    1.491003e+00    3.354653e+00   -1.823998e+00    5.148312e-01   -4.635233e-01    1.984193e-01   -1.435523e+00   -2.228581e+00    9.165117e-01   -1.154105e+00    5.122147e+00    4.079314e-02    2.091569e+00    8.653414e-01 
   3.141204e+00   -2.730915e-01   -3.913643e+00   -6.770482e-01    4.187817e-01    6.775187e-01   -3.053350e+00    1.788049e+00    1.710004e+00    4.413331e+00   -1.378420e+00    1.564138e+00    3.936243e+00   -4.362009e+00    2.782021e-01    1.365367e+00    1.399951e+00   -1.766734e+00   -2.132785e+00    2.162319e+00   -9.890570e-01    3.642905e+00   -1.457442e+00    2.849090e+00    6.616496e-01 
   1.955537e+00   -1.201381e+00    1.651206e+00   -2.529055e+00    9.478129e-01    7.347757e-01    1.684306e+00    3.743448e-01   -1.352615e+00   -1.393297e+00   -2.468557e-01   -9.205474e-01    3.353889e-01   -3.589386e+00   -1.402336e+00    4.179852e+00    1.457129e+00   -6.764131e-01   -1.353144e+00    1.737473e+00    4.494139e-01   -3.512403e+00   -3.877872e+00    3.708549e+00   -2.057014e+00 
  -5.276923e+00   -2.852896e+00    3.028229e+00    2.119958e+00    1.253865e+00    7.285810e-01    1.529144e+00   -7.693402e-01    1.227578e+00   -1.746097e+00   -7.767865e-01   -1.130097e-01   -3.386996e+00    1.327202e+00    1.729357e+00   -2.427221e+00   -7.174951e-01   -1.607962e+00   -2.441033e+00   -1.769453e-01    5.803023e-01    1.869016e+00    9.120557e-01   -1.494961e+00   -1.628403e+00 
  -3.717323e+00   -4.260082e+00    1.066849e+00    4.554743e+00    6.554238e+00    5.072813e-01    1.573637e+00    7.092963e+00   -2.008960e+00    2.468451e+00    2.979305e-02    6.947583e-01   -4.321995e-01    1.998457e+00   -8.990559e+00   -6.422541e-01   -6.068763e-01   -1.992094e+00   -1.526926e+00   -8.920437e+00   -1.984172e+00   -8.317699e-01    3.264416e-01   -4.670843e+00    3.447435e-01 
  -4.334462e+00    1.345150e+00   -5.652012e-01   -7.302177e-01    1.502462e+00    3.048581e-01   -3.620793e-01   -2.417666e+00   -1.156613e+00   -3.356905e-01    1.009099e+00    1.292857e-01    1.337906e+00    1.360243e-01    4.349415e-01    9.055724e-02   -1.064923e+00   -1.427848e+00    8.284659e-02    1.824156e+00    1.624984e+00   -1.204888e+00    8.264546e-01   -4.503775e+00    1.358320e+00 
  -4.417136e+00   -1.707095e-01    2.932665e-01   -1.422234e+00    2.493096e+00    2.532570e-01    5.774084e-01    4.078774e-01   -2.013969e-02    1.708761e-02   -1.256197e+00    1.621127e+00    1.858310e+00   -4.550119e-01    2.110698e-01    6.177498e-02   -4.904297e-03   -2.612587e+00    4.318298e-01   -6.006108e-01    3.157313e-02   -1.940031e-01    9.086937e-01   -4.097575e+00    9.082445e-01 
  -4.432271e+00   -1.761448e+00    1.273384e+00   -1.395143e+00    3.609143e+00    4.236945e-01    1.057120e+00    3.243053e+00    1.092281e+00   -1.727871e-01   -2.740419e+00    2.555688e+00    2.285749e+00   -5.234009e-01    2.382947e-01   -2.266918e-01    1.273469e+00   -3.115831e+00    5.561448e-01   -3.161880e+00   -8.954158e-01    1.023451e+00    1.291109e+00   -3.719564e+00    1.136288e-01 


   6.258720e-01    7.875154e-01    1.395048e+00   -2.278702e-01   -1.669409e-01    1.721000e-01    7.570767e-01    1.643058e-01   -1.780217e-01   -7.363380e-01    3.190920e-01    3.783807e-01    4.360640e-01    2.510939e-01    3.815015e-01    2.497576e-01    6.548213e-01   -6.322136e-02   -3.615630e-01    8.353313e-02    8.688932e-01   -3.182121e-02    1.621780e-01    1.183035e-01   -8.042372e-01 
   3.528960e+00   -4.314917e+00   -7.850170e-01    2.953633e-02   -3.504574e-01    1.814372e+00    9.461428e-01    1.688864e+00   -2.377294e+00   -2.954623e+00    1.347255e+00    2.310011e+00    3.850189e+00   -7.698909e-02   -1.890213e+00    2.210667e+00    3.535880e+00   -2.947979e+00    1.767839e+00   -1.870633e+00    9.557347e-01   -7.377367e-01   -3.383285e+00   -1.404690e+00    2.988902e+00 
  -6.622520e+00    5.439933e+00   -4.974329e-01    7.648926e-01    8.054131e-01   -7.465230e-01    3.392906e-01   -4.245340e+00    3.418931e+00    4.090519e+00    9.745683e-01    1.502849e-01   -3.853369e+00    1.835305e+00    8.303675e-01   -1.025930e+00   -4.908251e+00    4.540351e+00   -3.886397e+00    3.914540e-01    9.713791e-01    5.237938e-01   -3.914414e-01   -3.513388e-01   -3.809119e+00 
   1.750677e+00   -7.786858e-01    1.940124e+00    1.080001e+00    1.348021e+00    1.780124e-01   -1.459034e+00    3.686267e+00    1.486447e+00   -3.385442e+00   -1.534727e+00   -1.312547e-01    1.828235e+00   -2.813090e+00   -1.629006e+00   -3.699939e+00    2.635954e+00   -2.515444e-01    1.697043e+00    3.914587e-02   -4.914772e+00   -1.503401e-01    9.692730e-01    1.019425e+00   -3.024233e-01 
   4.222274e+00   -1.020412e+00    9.456912e-01   -1.213347e+00   -2.536029e+00   -4.062842e-01    2.669091e-01   -9.568696e-02   -3.121079e+00   -3.485931e+00    8.558431e-01    1.662359e+00    1.987433e+00    4.081665e-01   -1.018964e+00    2.880923e+00    2.009124e+00   -4.655068e+00    1.983927e+00   -8.819334e-01    2.348270e+00    5.136026e-02   -1.102404e+00    3.414656e-01    9.258025e-01 
   3.434034e+00   -6.230927e+00   -1.398072e+00   -1.107147e+00    1.435974e+00    7.542935e-01    2.562790e-01    2.151953e-01   -3.125590e+00   -7.260693e-01   -3.425996e-01   -3.862005e-01    3.470008e+00    2.462963e-01   -1.091483e+00    2.383798e+00    3.141741e+00   -2.559281e+00    3.008184e+00   -6.327532e-01    1.159451e+00   -1.532450e+00   -4.205539e-01   -9.033116e-02    5.881680e+00 
  -1.328138e+00   -1.231488e+00   -7.835481e-01   -1.375006e+00   -1.759448e+00    8.863998e-01    2.349934e+00   -3.005992e+00   -2.776355e-01    2.020591e+00   -4.314977e-02   -3.369873e-01   -6.798214e-01    2.038203e+00   -3.973659e-02    2.803856e+00   -2.976899e+00    1.444882e+00   -8.537729e-01   -4.515765e-01    4.749704e+00    6.665004e-01   -1.430234e+00   -9.561347e-01    3.570227e-01 
   3.204038e-01    4.781622e+00    3.335658e+00    2.470006e+00    1.591241e+00   -4.416767e-01   -1.092072e+00    2.281827e+00    7.840057e-01   -2.511169e+00   -4.126993e-01    1.063627e+00   -1.977398e+00   -2.639431e+00   -1.064584e+00   -2.367252e+00    1.545931e+00    1.017553e+00   -1.641262e+00   -9.615338e-01   -2.658816e+00   -1.091020e+00   -2.020257e+00   -1.237166e+00   -4.151377e+00 
  -6.589777e+00   -2.957253e-01   -3.816668e+00    2.982804e-01    3.807307e+00    1.188654e+00    6.029029e-01    2.013220e+00    5.312876e+00    4.308808e+00   -3.290378e-01    5.318994e-01    2.493090e-01    1.518683e-01   -5.520133e+00   -3.046093e+00   -1.086054e+00    4.806919e+00    1.264583e-01   -1.103258e-01   -4.967313e+00   -2.562252e+00   -2.540895e-01    4.741923e-02   -1.025333e-01 
   2.637684e+00    2.609655e+00    2.446581e+00    6.939711e-01   -1.937010e+00   -4.090505e-02   -1.397376e+00    3.569861e+00   -1.321484e+00   -4.285077e+00    1.789369e+00    1.754960e+00    2.176254e+00   -1.338226e+00   -1.618831e+00    1.150801e+00    2.945511e+00   -5.063067e+00    1.938985e+00   -2.599878e-01   -3.452923e-01    6.560489e-01   -4.357028e-01   -1.521196e-01   -1.584560e+00 
   1.059867e+00   -1.615804e+00   -2.856228e-01    4.692711e-01   -3.052461e+00    7.484969e-01    6.599328e-01   -2.128914e+00   -1.948719e+00   -1.922783e+00    1.733369e+00    3.593378e+00    1.235820e+00    3.838692e-01   -1.841430e+00    3.233484e+00   -1.825588e+00   -2.038727e+00   -5.920188e-01   -2.379318e+00    6.103154e+00    6.930086e-01   -4.073863e+00   -1.189355e+00    1.720918e+00 
   8.019518e-01   -1.682031e+00   -2.266608e+00    1.157765e+00    4.521676e+00    1.161205e+00    8.906535e-01    2.037420e+00    1.022560e+00    3.818372e+00   -9.516150e-01   -1.162485e+00    1.782324e+00    2.870020e-01   -2.048913e+00   -3.826724e+00    1.113325e+00    5.007638e+00   -1.270394e+00    7.834988e-01   -4.105867e+00   -4.204075e+00    1.475189e+00   -3.473853e-01    1.431636e+00 
   1.362364e+00   -1.107472e+00    1.936882e+00   -1.841623e+00   -4.344925e+00    6.588671e-01    2.560616e+00   -1.697090e+00   -1.916244e+00   -2.683059e+00    1.429951e+00   -1.127960e-02    1.797281e+00    1.629143e+00    2.096179e+00    2.738172e+00   -5.115149e-01   -3.631752e+00    1.301959e+00    3.468863e-01    4.208246e+00    3.692726e+00    1.142344e+00    3.961831e-01    1.406437e+00 
   1.802082e+00   -4.971479e+00   -1.180552e+00    4.197439e-01   -9.921348e-01    1.650394e+00    2.031396e-01   -6.892267e-01   -1.885100e+00   -2.085082e+00    4.639685e-01    1.612692e+00    3.617164e+00   -4.889411e-01   -1.954094e+00    1.878754e+00    4.275576e-01   -2.491705e+00    5.194029e-01   -1.582204e+00    1.391088e+00    6.679728e-01   -1.892227e+00   -9.859294e-01    3.809728e+00 
  -2.199829e+00    1.601626e+00    1.267549e+00    6.371358e-01    4.350619e+00    3.997420e-02    9.404771e-01   -2.103238e-01    2.397436e+00    8.424982e-01   -8.274349e-01   -4.825104e-01   -6.559363e-01   -8.463890e-01   -8.762789e-02   -2.901958e+00   -6.436419e-02    4.640670e+00   -2.151500e+00    1.009144e+00   -3.358326e+00   -1.804127e+00    4.142515e-02    7.678679e-02   -1.619909e+00 
  -2.020097e+00    5.495812e+00    3.653153e+00    2.426729e+00    5.484269e-02   -2.311763e-01   -1.002790e+00    2.166046e+00    2.543878e+00   -2.796409e+00   -1.191836e+00    1.056691e+00   -2.302255e+00   -3.688969e+00    1.469074e-01   -2.347873e+00    1.421859e-01    7.590908e-01   -1.887266e+00   -1.068600e+00   -3.625723e+00    1.134216e+00   -1.713556e+00   -7.634149e-01   -5.895510e+00 
  -1.966944e+00   -7.857306e-01   -1.413566e+00   -1.175360e+00   -1.038566e+00   -1.195639e-01    1.036781e+00   -1.312952e+00   -5.127454e-01    2.490838e+00    7.520427e-01   -1.240296e+00   -5.877322e-01    2.672284e+00    1.427635e+00    1.113908e+00   -1.062333e+00    5.994198e-01   -6.934491e-02    5.375687e-01    1.928791e+00    9.109459e-01    1.261044e+00    1.385016e+00    1.430201e+00 
   3.098000e+00    1.086806e-01    2.121753e+00    8.462463e-01   -2.170718e+00    1.612595e+00    1.526508e+00    8.440400e-01   -1.839347e+00   -4.412420e+00    4.015422e-01    2.312579e+00    2.657569e+00   -1.791861e+00   -1.426521e+00    2.641685e+00    1.651671e+00   -2.890429e+00   -2.523445e-01   -2.397025e+00    1.396641e+00    9.940254e-01   -4.031930e+00   -1.786575e+00   -5.610360e-01 
  -8.378615e-01   -1.167003e+00   -1.134609e+00   -1.765296e+00    2.498285e+00   -9.776396e-01    1.546006e-01    1.740074e+00    2.244342e+00    2.051080e+00    1.937517e-01   -1.455789e+00   -5.884298e-01    9.474520e-01    1.705663e+00   -3.590055e+00    1.675026e+00    2.484269e+00    1.129437e+00    2.275324e+00   -2.919560e+00   -1.096666e+00    3.319794e+00    1.797996e+00    9.556793e-01 
   2.360827e-01   -1.752280e+00   -9.009483e-01   -2.989158e+00   -1.378767e+00   -2.488243e+00   -1.107079e+00    6.884550e-01   -8.957360e-01    1.579705e+00   -7.663431e-01   -2.845666e+00   -1.856455e+00    2.013402e+00    2.898056e+00   -1.207123e+00    2.141076e+00   -9.674496e-01    1.698612e+00    3.432709e+00   -1.868844e+00    7.795544e-01    4.038760e+00    3.262637e+00    1.166053e+00 
   5.609514e+00    2.452486e+00    4.585576e+00    1.192498e+00   -4.163926e+00   -2.138102e+00   -2.481806e+00   -2.198996e+00   -2.517851e+00   -3.759183e+00    1.471220e+00    1.292006e+00    1.181468e+00   -4.948614e-01    3.760204e+00    2.995705e+00    8.916120e-01   -4.935329e+00    2.544658e-01    1.085387e-01    4.024080e+00    3.048286e+00    2.833438e+00    1.576941e+00   -8.118349e-01 
  -7.868090e-01    2.588023e+00    2.641872e+00    1.318820e+00   -1.287344e+00   -1.827319e-01   -8.512556e-02   -3.153352e+00    2.803476e+00    8.194165e-01    4.722681e-01   -4.747958e-01   -1.230371e+00    1.352331e-01    3.613904e+00   -1.709825e+00   -2.415649e+00    5.695346e-01   -3.045056e+00    1.219499e+00    1.415528e+00    1.978243e+00    3.062495e+00    3.809658e-01   -2.696740e+00 
  -4.771892e+00    9.652953e-01   -3.690475e+00    6.807055e-01    6.086408e+00    1.833824e+00    3.384499e+00    1.960894e+00    3.786317e+00    3.571502e+00   -2.066921e+00   -5.733746e-01   -4.244942e-01   -2.370753e-01   -6.200606e+00   -3.432215e+00   -9.679097e-01    4.565497e+00   -3.112938e-01   -3.153839e-01   -6.010574e+00   -4.604379e+00   -9.778368e-01   -1.143030e+00   -1.035850e+00 
   2.683564e+00    1.290132e+00    2.461090e+00    6.522934e-01   -2.036646e+00    7.660120e-01   -6.873075e-01    1.956804e+00   -1.238321e+00   -2.375428e+00    1.194615e-01    3.969775e-01    1.608939e+00   -3.325857e-01   -4.305371e-01    1.291259e+00    1.864208e+00   -3.155969e+00    1.339631e+00    6.293829e-02    1.306271e+00    5.082803e-01    3.110116e-01    1.236517e-01   -1.142925e+00 
  -4.050768e+00    4.305412e+00    1.034287e+00    1.318521e+00    2.729426e-01   -1.044041e+00   -6.536011e-01   -1.135668e+00    3.053161e+00    2.673153e+00   -7.885045e-03   -1.130261e-01   -3.672276e+00   -2.822730e-01    3.940444e-01   -2.260141e+00   -3.911311e+00    2.747278e+00   -3.217356e+00    4.686764e-01   -4.797371e-01    3.056728e-01    1.404244e+00    7.113365e-01   -3.971175e+00 
  -1.357922e+00   -1.274032e-01   -1.233348e+00   -1.805037e+00   -1.299468e+00   -9.369916e-02    1.982327e+00   -1.687224e+00   -6.239733e-01    1.307235e+00   -3.644682e-01   -1.266609e+00   -5.255467e-01    1.992996e+00    1.557716e+00    2.818445e-01   -1.456758e+00    1.056025e+00   -3.249188e-01    4.570730e-01    1.699245e+00    1.023454e+00    4.777503e-01    5.765003e-01    2.312787e-01 


  -2.747454e+00   -2.194946e+00   -2.478702e+00   -2.961793e+00   -2.896422e+00   -3.431456e+00   -2.220262e+00 
  -6.254251e+00   -1.183079e+01    9.686817e+00   -5.117293e-02   -7.685249e+00   -2.617559e+00    2.954503e+00 
  -5.502604e+00    7.913297e+00   -1.511132e+01    2.518014e+00   -8.119492e+00    4.034767e+00    8.978882e-01 
  -1.023529e+01    8.398870e-01    1.791904e+00    1.141699e+00   -9.191041e+00    3.554438e+00   -1.192068e+00 
  -7.341036e+00   -6.266130e+00   -6.278921e+00    1.163084e+00    4.889575e-01    4.394450e+00    3.311013e+00 
   6.296930e+00   -3.595699e+00   -8.259491e+00    6.923535e+00    5.165948e+00   -9.814999e+00   -4.500305e+00 
  -5.475497e-01   -4.105992e+00   -3.347767e+00    1.359589e+00   -1.527821e+00    4.706749e-01   -6.810920e+00 
  -1.876609e+00    1.532653e+00   -6.010505e-02    1.424696e+00   -1.386997e+00   -1.793582e+00   -1.127780e+01 
   3.326100e+00   -6.884315e+00   -3.673163e+00    3.848615e+00   -8.460723e+00   -7.752752e+00    4.002347e+00 
   1.404614e+00    4.361072e+00   -1.236149e+01    4.014629e+00   -8.024967e-01   -9.436044e-01   -1.370670e-01 
   6.205937e+00    6.743254e+00   -7.682965e+00   -8.131391e+00    7.874552e+00   -4.100260e+00   -4.011469e+00 
  -4.509523e+00   -3.326998e+00   -1.216914e+00   -5.030651e+00    3.789335e-01   -1.143879e+00   -1.387548e+00 
  -9.567370e+00   -5.577660e+00   -1.691081e+00    7.653443e-01    1.677213e+00    1.756944e+00    1.414545e+00 
  -8.318476e-01   -1.256327e+01    1.244052e+00    7.182687e-01   -1.662844e+00    2.319461e-01   -3.843580e+00 
   1.455717e+00    2.572023e+00   -6.106949e-01   -8.782632e+00    1.796979e+00   -2.080716e+00   -6.582697e+00 
  -8.212702e+00    2.848891e+00    9.403366e+00   -5.096754e+00   -1.349900e+00   -4.168003e+00    3.386848e+00 
  -7.408671e+00   -6.562579e+00    6.348196e+00   -8.139823e+00    1.517542e+00    5.233276e+00   -2.485722e+00 
   9.642696e-02   -8.700029e+00    5.845753e+00    2.599394e+00   -5.300918e+00   -6.556455e+00    1.720718e+00 
   4.344303e+00    8.642091e+00   -1.155650e+01    4.694426e+00    5.608999e+00   -8.329498e+00   -5.581408e+00 
   1.334856e+00   -4.343150e+00    5.718842e+00   -1.556439e+00   -7.609036e+00   -5.109588e+00   -2.492259e-01 
   4.128105e+00    2.116530e+00   -2.864090e+00   -4.848752e+00   -3.681005e+00   -5.952519e+00    8.342156e-01 
  -1.099234e+01    7.766407e-01    8.299018e+00   -1.142021e+01    3.902669e+00    4.585977e+00   -6.062861e+00 
  -7.146307e+00    2.144665e-02    1.392238e+00   -6.171032e+00   -5.189198e+00    6.013711e+00    1.736645e+00 
   7.902361e+00    2.338056e+00   -4.537119e+00   -1.088939e+01   -6.217766e+00   -6.056178e+00    4.715243e+00 
   2.264651e+00    1.088274e+00   -1.377380e+00   -5.494575e+00   -5.359193e+00   -4.707860e+00    2.762406e+00 
   1.249859e+00   -8.521602e+00    9.301088e+00   -5.481675e+00    2.881856e+00   -7.263892e+00   -2.739171e+00 


