2
24 25 25 10 
        1.549132e+00         5.685709e-01         8.575021e+00         1.970174e-01         7.435074e+00         2.326028e-01         8.542235e+00         1.939659e-01         6.665485e+00         2.082143e-01         8.425017e+00         2.015085e-01         7.933962e-02         5.803286e+00         2.527723e-01         1.520577e+00         3.220943e+00         2.164440e-01         8.588502e+00         1.967969e-01         9.232002e-01         4.106043e-01         2.677529e+00         2.350046e-01         5.216482e+00         1.588386e-01        -7.509260e+00         1.811776e-01         5.254884e+00         1.524645e-01        -4.033828e+00         1.206875e-01         8.640741e+00         1.951336e-01         8.462260e+00         1.969239e-01         2.994869e-01         1.127995e-01        -1.196451e+00         1.134363e-01         6.261801e+00         2.132146e-01         7.926275e+00         2.028681e-01        -4.041490e-01         1.299267e-01         2.688374e+00         1.055905e-01         0.000000e+00         1.000000e+00         0.000000e+00         1.000000e+00         0.000000e+00         1.000000e+00         0.000000e+00         1.000000e+00         0.000000e+00         1.000000e+00         0.000000e+00         1.000000e+00         0.000000e+00         1.000000e+00         0.000000e+00         1.000000e+00         0.000000e+00         1.000000e+00         0.000000e+00         1.000000e+00 
80
  -4.727759e-01    2.474880e+00    4.592972e+00   -2.605411e+00   -1.865106e+00    1.775535e-01    1.217082e+00   -1.020623e+00    7.524474e-01   -8.610837e-01    3.663855e+00   -5.026379e-01   -7.572186e-01    1.915452e+00    1.117476e+00   -2.786692e-01    1.058498e+00    1.903641e+00    2.594194e+00    7.337107e-01   -7.171047e-01    1.607467e+00   -2.400973e+00    5.587061e+00    9.122014e-01 
   4.480999e-01   -3.845334e+00   -1.511842e+00   -1.114314e-02   -2.182496e+00    7.378514e-01   -3.173258e+00   -1.877950e+00    3.630364e+00    5.939720e+00    3.482201e+00   -2.344411e+00    3.139604e-01   -1.684437e+00    2.857187e-02    3.030974e+00    2.838065e+00    1.735515e+00    1.734377e+00   -3.185803e+00    2.673887e+00   -1.841834e+00   -7.107421e-01    6.864055e-01   -1.664999e+00 
  -1.148508e-01   -3.712203e-01   -3.175992e-01    4.206973e-01   -2.091860e+00    8.685800e-01   -5.609114e-01    1.075112e+00    1.392801e+00   -1.110961e+00   -7.273409e-01   -4.381125e-01   -1.416597e+00    4.597037e-01    1.678898e+00    5.363572e-01    6.387927e-01   -1.097446e+00   -5.975086e-01   -9.375869e-01   -5.269981e-01   -9.568315e-01    1.164926e+00   -4.247201e-01    1.789641e-01 
   4.210336e+00   -3.692590e+00    1.657894e-01   -5.730700e-01   -4.767907e+00   -3.107374e+00    5.879733e-01    1.733366e+00   -1.479655e-01    2.109239e-01    3.487585e+00   -2.348386e+00    5.678900e+00    2.402536e+00   -3.462994e+00    2.711514e+00    6.605652e-01   -1.378188e+00    2.786822e+00   -3.856947e+00    1.826214e+00    9.478978e-01    2.267718e-02    2.964409e-01    7.736225e-01 
   3.050623e-01   -2.764563e-02    1.337953e-01    2.157958e-01   -1.284752e+00    1.518015e+00   -9.417862e-01    5.341484e-01    1.299780e+00   -7.155925e-01   -4.456259e-01    1.911556e-01   -1.156892e+00   -1.702102e-01    1.436643e+00   -7.263452e-03    3.273192e-02   -5.863171e-01   -7.429816e-02   -9.441782e-01   -7.354895e-01   -5.100967e-01    1.506231e+00   -3.765294e-01    1.917849e-01 
  -2.049465e+00    1.240884e+00    1.679710e+00   -3.118188e+00    1.491869e+01   -1.152849e+01    2.316865e+00    1.497024e+00   -3.206991e+00   -1.690417e+00    4.330435e+00    2.241113e+00    1.077051e+01    2.281078e+00   -5.486248e+00   -2.394117e+00   -3.856438e+00    6.143137e+00    1.581697e+00    2.993672e-01    8.721066e+00    4.565987e+00   -8.893648e+00    2.142115e+00   -1.046091e+00 
   1.388857e-01   -5.722208e-01   -8.074062e-01    1.078760e+00   -5.618213e+00    5.011559e+00    1.216522e-01    6.249681e-01    1.141324e+00   -6.764532e-01   -1.684836e+00   -2.610880e-01   -3.474560e+00    4.393872e-01    3.211380e+00    2.350744e-01    1.508665e+00   -1.903146e+00   -1.363190e+00    1.264078e+00   -7.906745e-01   -2.918526e-01    1.259784e+00   -1.487535e+00    4.035574e-01 
  -3.024076e+00    3.711651e+00   -6.210418e-01    6.575785e-01   -3.850536e+00   -1.689531e-01    1.291318e+00    6.192254e+00   -1.955270e+00   -1.698044e+00    2.964099e+00   -9.047326e-01    1.648905e+00    3.610605e+00    3.354599e-01   -1.852431e+00   -5.115476e+00    5.566459e-01    6.984078e+00    5.866170e+00    1.945114e+00    2.681470e+00   -1.943127e+00    1.538050e+00    1.328442e+00 
  -5.062161e+00    7.090185e+00    1.127398e+00   -3.181648e+00    2.110886e+00    2.086088e+00   -2.781181e+00   -4.635357e+00   -3.894691e+00    5.438651e+00    2.379126e+00   -4.202636e-01    2.336999e+00    2.069925e-01    2.675734e+00   -8.267205e-01   -3.480532e+00    3.957866e+00    6.473053e+00    1.661577e+00   -2.180914e-01   -1.677146e+00   -5.049835e-01    9.703916e+00   -2.843943e-01 
  -2.507792e+00    4.613370e+00   -4.365966e-01    9.824561e-01   -1.699730e-01    1.668329e+00    1.294046e+00    1.375694e+00   -1.835702e+00    3.224592e-01   -2.037521e+00   -1.923677e+00    2.060830e+00   -1.399153e-01   -2.890271e+00    5.825872e+00   -3.878330e-01    6.796793e-01   -4.224649e+00   -3.038138e-01   -5.694005e-01   -2.349192e+00    1.482193e+00   -1.253184e+00    1.041489e+00 
  -2.099200e-01   -5.468211e-01    7.144423e-02    5.677368e-01   -1.611996e+00    1.541393e+00   -7.498594e-01    9.731222e-01    1.175527e+00   -1.108184e+00   -1.149997e+00   -2.236273e-01   -1.603104e+00   -9.314009e-02    1.848566e+00    6.744581e-01    7.662118e-01   -7.378465e-01   -9.151634e-01   -1.180641e+00   -7.450346e-01   -6.730456e-01    9.305140e-01   -6.860064e-01    2.591568e-01 
  -2.563842e+00   -1.270421e+00   -2.141658e+00   -7.649685e+00   -5.242460e-01    7.951561e-01   -3.278546e+00   -1.932124e+00   -1.914086e+00    1.550670e+00   -1.318917e+00   -2.041048e+00    1.855606e+00    1.332218e+00   -1.268311e+00   -3.500935e+00    2.312968e+00   -1.569297e+00   -4.552096e-01   -4.169542e+00   -2.039006e+00   -2.228950e+00    1.578230e-01    3.271314e-01   -4.724940e-01 
   1.003560e+00   -1.059227e+00    1.228837e+00    3.487919e+00    1.859116e+00   -1.216365e+00    9.257260e-01   -2.105246e-01   -2.291889e+00    1.521299e+00    1.695177e+00   -1.114374e+00   -1.005087e+00    2.310502e+00   -2.201860e-01    3.368644e+00    3.123692e+00    7.004932e-02   -1.078664e+00   -1.668257e-01   -1.536519e+00   -5.867405e-01   -3.991883e+00    2.465208e+00    1.349952e+00 
   1.109240e+00   -3.800719e+00   -4.076650e-01    8.153685e-01   -1.544420e+00   -2.848510e+00   -1.770972e+00   -4.729612e+00   -1.621340e+00    3.359325e+00   -4.248470e-01   -3.761004e+00   -7.185317e-01    1.561002e+00   -2.636832e-02    1.382193e+00    8.792281e-01    1.675647e-01    2.559256e+00    1.966865e+00    9.659232e-01   -1.104649e+00   -3.966948e-01   -1.037855e+00    3.536345e+00 
  -9.107410e-01   -2.934783e+00   -6.860274e-01    3.659270e+00   -3.194963e+00   -1.264417e+00    2.743804e-01    1.443057e+00   -4.632683e-02    3.713402e-01   -2.153901e+00   -4.664756e-01   -1.579962e+00    5.815365e-01    2.039732e+00    1.727126e+00    1.178627e+00    1.101938e+00   -1.994720e+00   -3.276812e-01    3.755737e+00   -1.227994e+00   -5.153873e+00   -1.379884e-01   -8.545444e-01 
  -1.422656e+00   -1.353882e+00    9.010906e-03    7.969557e-01    6.252640e-01   -2.009386e-01   -1.885223e+00   -5.067186e+00   -1.112658e+00    1.925192e+00   -2.949688e+00   -2.519183e+00   -4.701222e+00    2.981061e-01    3.279416e+00    1.921397e-01    7.199533e-01    5.006022e-01    8.169956e-01    3.581412e+00   -7.737739e-01   -2.266257e+00    5.588151e-01   -1.718332e+00    3.564696e+00 
   2.657139e+00   -2.856877e+00    1.930594e+00   -3.421400e-01    5.594770e-02    8.283986e-01    2.869212e-01   -3.852831e-01   -1.768519e+00    1.938342e+00   -1.634787e+00    3.933815e-01    6.607685e-01    2.081452e+00    3.109188e-01    3.999740e+00    1.278645e-01   -1.543388e+00    5.832776e+00   -4.151033e-02    1.139816e+00   -1.940255e+00   -2.907295e+00    1.525519e+00    2.235137e+00 
  -1.756937e-01   -3.291283e-01   -6.836213e-02    4.685646e-01   -1.712363e+00    9.156040e-01   -4.935987e-01    9.197014e-01    1.073579e+00   -1.089841e+00   -1.021847e+00    1.162412e-01   -1.194996e+00    2.764362e-01    1.823177e+00   -5.691595e-02    5.751335e-01   -6.024133e-01   -9.184250e-01   -1.022546e+00   -4.301850e-01   -4.845586e-01    1.204575e+00   -5.867716e-01   -4.529118e-03 
  -2.174469e-01   -2.176555e-01    2.659833e-01    1.024193e-01    4.515235e-01   -1.146832e+00   -4.407222e-01    9.553812e-01    8.318763e-01   -9.213964e-01   -4.428565e-01    5.705037e-01    2.811540e-01   -8.918717e-03    9.351460e-01    1.477871e-01    5.553617e-02    2.277425e-01   -3.265854e-01   -9.593381e-01    1.127376e+00   -2.042653e-01   -5.269998e-01   -3.133993e-01    8.268948e-02 
   4.589004e-01   -1.417565e+00    5.733311e+00   -1.794641e+00    5.932529e-01   -3.166343e+00   -1.373096e+00    1.981380e-01    2.259636e+00   -6.999663e-01   -6.714507e-01   -2.485643e+00   -1.703558e+00   -4.035204e+00   -3.856339e+00    3.621170e-01   -1.228105e+00    1.776331e+00   -1.362920e+00   -8.996021e-01    5.507212e-01   -7.509064e+00    2.691961e+00    2.938851e+00   -2.205895e+00 
  -1.252484e+00    1.577461e+00    2.969160e+00    3.534690e+00   -4.927279e+00    8.587125e+00    1.810096e+00    9.117942e-01   -3.033212e+00    1.103065e+00    9.285877e-02    3.348618e+00   -3.006364e-01   -6.927588e-01    7.471588e+00    1.914201e+00    1.977869e+00   -1.801340e+00    1.832206e+00    4.067988e+00   -4.027173e+00    2.906491e+00    1.895252e+00   -3.982620e+00    3.320834e+00 
   2.394224e+00    1.067816e+00    7.680484e-01   -7.991663e-01    9.230177e-01    1.733230e+00    1.073348e+00   -2.515470e+00   -6.006964e-01    3.611634e+00    6.719920e-01    8.635169e-01   -3.613354e+00   -1.989340e+00   -1.664122e+00    1.523245e+00   -3.340224e-01    7.422694e-01    1.696902e+00    3.966002e+00    4.994719e-01    9.344369e-01   -3.409692e+00    3.864380e+00   -3.988351e+00 
   2.479561e-01    2.817865e-01    3.818272e-01    4.976420e-01   -1.500861e+00    1.676807e+00    5.238010e-02   -2.083560e-01    8.771531e-01    2.827673e-01   -7.464923e-01    7.456819e-02   -2.173405e+00   -1.017736e+00    5.517538e-01    1.041778e+00    4.585414e-01   -1.287840e-01    8.824843e-02    3.166313e-01    8.361285e-02   -3.798918e-01   -2.138011e-01    1.046106e+00   -1.008121e+00 
  -1.505406e+00   -2.295823e-01   -4.066115e-01   -5.360549e+00    6.291744e-01   -1.059469e+00    1.886347e+00    3.929469e+00   -2.551323e+00    2.337406e+00   -2.295329e+00   -1.392531e+00    3.812220e-01    8.625754e-01   -8.260211e-01    1.372005e+00    6.648355e-01   -9.170478e-01   -5.487218e-01   -1.371630e+00   -8.502104e-01    2.118654e+00    1.339204e+00   -2.829975e+00   -3.612536e+00 
  -2.112109e-01    1.218921e-01   -2.488891e-01    8.703807e-01    1.965810e-02   -2.181476e-01   -1.912186e+00   -4.286863e-02   -6.781823e-01   -6.513539e-01   -1.173029e-01   -9.473267e-01    2.709342e-01   -4.173684e-01    1.600241e-01   -2.021857e-01   -1.690655e-02   -4.680532e-01   -2.751255e-01   -4.760547e-02   -7.916611e-02   -1.795670e-01    4.476397e-01   -3.225427e-01   -2.190895e+00 


   6.336909e-01   -7.427357e-01   -9.597886e-01    1.174440e+00    2.487140e+00    4.098061e-01   -4.759375e-01    5.075335e-01   -4.048485e-03    2.756400e+00   -4.386282e-01   -1.117233e+00   -1.034040e-01   -1.503114e+00    4.954916e-01    5.999820e-02   -2.810979e-02   -7.341156e-01    5.595982e-01    7.286895e-01    2.687691e+00   -3.949894e-01    6.039999e-01    7.224637e-01   -7.605343e-02 
   8.713546e-01   -1.622539e+00   -2.847946e-01    3.837716e+00   -4.071747e+00    3.988921e+00   -3.474585e+00    1.282581e+00    1.258635e+00    3.053613e-02   -2.358320e+00    3.972320e+00   -9.626755e-01   -1.454997e+00    1.861161e+00    7.489849e-01   -1.627254e+00   -1.831598e+00    3.432615e-01   -2.248035e+00   -1.402246e+00    4.634233e+00   -1.974325e-01   -1.947124e+00    1.495804e-01 
   2.822907e+00   -1.074141e+00   -9.618892e-01   -1.897218e-01   -1.210611e+00   -2.233251e+00    1.315793e+00   -4.412205e-01   -1.227697e+00   -2.273717e+00    9.481297e-01    2.087399e-01   -1.643567e+00    5.706568e+00    1.032415e+00    1.458668e+00    9.013074e-02    6.210313e+00    2.180299e-01    1.250370e+00   -2.227352e+00   -9.089853e-01   -3.794631e-01    9.769129e-01    1.400951e+00 
  -3.120335e+00   -1.672661e+00   -2.837726e+00    2.023787e+00   -2.400008e+00   -1.937826e+00   -2.430044e+00    5.795404e-01   -4.795492e+00    1.054763e+00   -1.152449e+00    5.051332e-01    2.391699e+00    6.879604e-01    2.114649e+00   -2.367897e+00    2.038388e+00    3.777616e+00    6.158854e-01   -4.425896e+00   -1.017598e-01   -2.636804e+00   -1.131698e+00    1.332109e+00    7.754654e-01 
   5.928319e+00    9.607579e-01    7.267840e-01   -2.840886e+00   -1.551045e+00    1.703161e-01    5.561908e+00   -4.094167e+00    4.193494e+00   -1.640800e+00   -9.813415e-01   -3.376768e+00    4.237539e+00    2.804191e+00   -1.096693e+00    2.142948e+00   -1.000546e+00   -5.921490e+00    4.995349e-01   -8.523227e-01   -9.766083e-01    2.980652e-01   -1.555164e+00    3.549115e+00   -1.292547e+00 
  -8.508632e+00    1.418593e-01   -3.645875e+00    1.383723e+00    1.191993e+01   -4.189748e+00   -1.365825e+00   -2.897815e-02   -3.538127e+00    5.996072e+00    2.854457e+00   -2.279181e+00   -1.025609e+00    6.532545e-01    2.215939e+00   -2.483011e+00    1.724407e+00    9.199672e+00    1.929081e-01    2.007876e+00    7.800026e+00   -1.758523e+00   -2.454989e-01   -1.168232e+00    2.891938e+00 
   3.261227e+00    9.451121e-01    4.058975e+00   -1.692195e+00   -6.812346e+00    8.237725e-01    3.370671e+00   -2.120655e+00    2.641898e+00   -7.240058e+00   -3.465935e+00    3.483889e+00   -3.204575e+00   -1.673447e+00   -2.918024e+00    1.783482e+00    1.041344e+00   -4.139248e+00    3.044635e-01    2.792286e+00   -3.943877e+00    7.418332e+00    7.135904e-01    2.424435e+00   -2.607276e+00 
  -7.482803e-01    3.205673e+00   -6.137173e-01   -8.767150e-01    9.046637e-01    2.841588e+00   -4.787408e+00    3.964252e+00    3.038279e+00    3.660616e+00    9.928478e-01   -2.186782e+00    1.106584e+00   -4.310709e+00    1.068738e+00   -2.159217e+00   -3.789684e+00   -1.722495e+00    6.016795e-01    7.863415e-01    1.778902e+00    1.831252e+00   -7.687541e-01   -3.074544e+00   -1.317339e+00 
   4.179948e+00    7.485320e-01   -4.891715e-01    5.654254e+00   -2.262531e+00    3.465603e+00   -5.960388e+00    4.966041e+00   -7.039831e-01    1.479819e+00   -7.508662e-01   -3.826584e+00    5.999457e+00    1.700840e-01    4.310543e-01   -1.634682e+00   -6.143129e-03   -4.282530e+00    1.600109e-01    1.167357e+00   -5.755839e-01   -1.228737e+00   -5.749025e-01   -1.065518e+00   -1.375289e+00 
   4.889602e+00    1.576011e+00    5.436171e-01    3.187865e+00   -8.072487e-01    2.260428e+00    7.000755e-01   -3.341917e-01    3.449521e-02   -9.825000e-01    1.234972e+00   -5.637702e-01    3.032333e+00   -2.099231e+00   -2.113086e-01    1.012044e+00   -1.169099e+00   -4.354204e+00    5.410791e-01   -3.193612e+00   -3.770331e-01    1.259421e+00   -1.512120e+00    8.119607e-02   -3.186213e+00 
  -4.702540e+00   -8.983442e-01    8.745695e-01   -2.584850e+00    1.399637e+00   -3.554470e+00    3.929236e+00   -1.732132e-01   -1.594280e+00   -1.736989e+00   -2.119729e-01    2.008758e+00   -4.196210e+00    3.100772e+00    1.351683e+00    1.866604e+00    1.651507e+00    3.655697e+00    3.192524e-01    1.195922e+00   -6.364644e-01   -2.663875e+00    2.217591e+00    1.489596e+00    1.226903e+00 
  -4.237166e+00    1.835400e+00    6.981705e-01   -2.241459e+00   -2.616821e-01   -6.155050e-01    2.874375e+00   -1.090042e+00    2.133893e+00    1.474388e+00    4.340548e-01   -1.197863e+00   -2.705205e+00    4.711579e+00   -1.171150e+00    1.159899e+00   -1.508341e+00    6.796740e+00    4.549603e-02    1.351678e+00   -1.523509e+00   -2.297342e+00    1.859870e+00   -3.761741e+00   -1.210784e+00 
  -2.641744e-01    2.193342e+00   -7.157964e-01    1.340708e+00    5.296448e-01   -1.556688e+00   -3.058588e+00   -2.073546e-01   -7.448641e-01   -4.115700e-01    7.833300e-01   -1.112539e+00   -8.564888e-01    5.057159e+00    1.342830e+00   -1.392223e+00    1.097761e+00    1.261803e+00    3.533230e-01   -1.261930e+00   -1.133455e+00    7.031369e-01    9.524076e-02   -9.928926e-01   -3.980672e+00 
  -3.067315e+00    5.378595e-01   -3.447033e+00    1.361655e+00    8.683232e+00   -4.075538e-01   -1.863808e+00    7.087110e-02    9.051380e-01    5.854532e+00    2.160848e+00   -3.636712e+00    3.669669e+00   -1.611008e+00    3.482786e+00   -2.177182e+00   -5.125050e-01    3.350274e+00    1.658219e-01   -4.723078e-02    6.331407e+00   -2.517920e+00   -6.570657e-01   -8.079625e-01    1.465405e+00 
  -7.079441e-01    7.597311e-01    1.939636e+00   -3.800797e+00    6.487984e-02    3.236758e+00    1.655555e+00   -7.201621e-01   -2.149881e+00    1.811311e+00   -1.348861e+00   -5.190434e+00   -3.609106e-01   -7.187724e-01   -3.683628e+00   -7.365661e-01   -1.202947e+00   -2.311803e+00    4.063671e-01    2.188705e+00    1.599871e+00   -1.707316e+00   -1.408982e+00   -7.603440e-01    1.447422e+00 
   3.313039e+00   -1.797808e+00    1.347736e+00    4.868841e-01   -7.711909e+00   -1.004494e+00   -6.273095e-01   -2.007138e+00   -1.161022e+00   -2.971406e+00   -1.983219e+00    2.941257e+00   -1.005482e+00   -5.088097e-01   -1.818112e-02    2.733586e-01    2.688883e+00   -4.054867e+00    2.780094e-01   -4.723380e+00   -2.791776e+00    3.134901e+00   -3.266007e+00    2.434626e+00   -6.898941e-01 
   1.558116e+00   -1.192882e+00   -1.470692e+00    3.826778e+00   -1.868642e+00   -1.830761e+00   -2.648211e+00    2.138313e+00   -4.381447e+00   -5.191894e-01    8.102062e-01   -5.659135e-01    2.446558e+00   -8.375821e-01    1.206926e+00   -2.387355e+00    2.481759e+00   -7.998171e-01    4.812819e-01   -3.500650e+00   -2.644974e+00    7.297055e-01   -2.403874e+00    1.778933e+00    2.285082e+00 
   1.986953e+00    1.742860e+00    2.512858e+00    1.982866e+00   -1.384752e+00    3.505703e-01    2.267565e+00   -4.389436e-01    7.040120e-01   -4.213110e+00   -7.088954e-01    9.302525e-01    4.590100e-01   -3.312661e+00   -2.622950e+00    1.156830e-01    1.398044e-01   -4.131386e+00    3.180930e-02   -1.955411e+00   -7.836821e-01    4.303149e+00   -3.208886e-01    2.847979e+00   -2.843563e+00 
  -1.991089e+00    7.341590e-02   -1.015092e+00   -5.155319e+00    5.623443e+00   -7.919099e-01    3.056119e+00   -9.732021e-01    1.230635e+00    1.000245e+00    1.652635e+00   -1.031306e+00   -1.378229e+00    1.134333e+00    2.148288e-01    1.541046e+00   -1.502753e+00    2.365503e+00    3.007684e-01    2.684307e-01    2.808463e+00   -4.795105e+00    1.751923e+00   -3.792410e-01   -8.687327e-01 
   2.205774e+00   -2.862143e+00   -1.264962e-01    1.844009e+00    6.625806e-01   -3.249518e+00    1.423880e+00    4.700665e-02    9.552551e-01    4.145046e-01    5.322158e-01   -3.420583e+00    8.381181e-01    6.070014e+00    2.094341e-01    8.238349e-01    1.502981e+00    5.597248e+00    7.464116e-01    1.363466e+00   -1.563068e+00   -5.805141e-01    2.808887e+00    1.959580e-01    1.264698e+00 
  -4.110501e+00   -5.647109e-01    1.196077e+00   -1.178512e+00    7.969830e-01    3.224412e-01    2.793066e-02    2.024247e+00   -1.408029e+00   -2.288795e+00   -1.810056e+00    6.186220e+00   -5.457191e+00   -4.111067e+00    3.717785e+00   -7.578079e-01   -5.408831e-01   -3.271675e+00    4.500682e-01   -5.421734e-01   -1.865034e+00   -2.470822e+00   -1.987925e-01   -8.523768e-01    5.988511e-01 
  -4.253556e+00    1.333169e+00   -1.400314e+00   -3.385169e+00    7.335150e+00    3.232349e+00    6.352624e-01   -2.446307e-01    1.220729e+00    2.124243e+00    2.741642e+00   -2.033096e+00   -3.818730e+00    1.118829e+00   -1.495515e+00    1.063940e+00   -1.776729e+00    2.759539e+00    2.855198e-01   -1.142403e+00    4.635068e+00   -3.855089e+00   -3.790735e-01   -1.909002e+00   -1.146755e+00 
  -8.415825e-01    3.993150e+00    1.318113e+00   -3.343604e+00    5.982267e+00   -2.045767e+00   -9.180308e-01   -2.696262e-01    6.654550e-01   -8.838514e-01    2.012738e+00   -3.904762e+00    3.998258e+00   -1.818777e+00   -4.166893e+00   -1.803464e+00    6.126303e-01    2.509559e+00    3.805431e-01   -8.826454e-01    2.663614e+00   -4.382659e-01   -3.468111e+00   -3.334922e-02   -2.710047e+00 
   4.606068e+00   -9.038510e-01   -1.256311e+00    4.372419e+00   -4.053747e+00    1.293661e+00   -2.282692e+00    6.543754e-01    3.653622e+00   -3.219500e+00    1.414447e+00   -8.067652e-02    1.447111e+00    5.011487e+00   -1.876581e+00    6.412173e-01    6.091594e-01   -7.189665e-01    6.682823e-01   -6.022181e-01   -4.401434e+00    4.611567e+00    6.217288e-01    1.668307e+00   -1.313281e+00 
  -4.745070e+00   -8.773526e-01    3.995101e-01    2.320020e+00   -9.909772e-01   -8.697669e-01   -2.387968e-01    2.885060e+00   -9.182357e-01    1.664027e+00   -1.660057e+00    6.310153e+00   -3.304484e+00    2.093088e+00    7.266860e-01    5.299732e-01    7.397147e-01    5.723885e+00    4.479569e-01    1.253734e+00   -1.796888e+00   -1.342228e+00    2.673473e+00   -1.199359e+00    1.756719e-01 
   2.525345e+00    2.002551e+00   -1.171340e+00    4.703750e-01   -4.004674e-01   -1.337153e+00    8.975093e-01   -3.329022e+00   -2.506607e+00   -2.599788e+00    2.396221e+00   -6.506799e-01    3.513210e+00   -4.850833e-01    4.208756e-01   -7.572951e-01    9.904577e-01   -2.460845e-01    1.978002e-01   -3.352918e+00    7.588218e-01    1.331133e+00   -3.768992e+00    1.201959e+00    7.622744e-01 


  -1.772866e+00   -2.821342e+00   -3.117621e+00   -2.130052e+00   -2.188687e+00   -1.475892e+00   -2.644174e+00   -1.414708e+00   -1.529313e+00   -3.006439e+00 
  -3.664182e+00   -1.278127e+01    7.087553e+00    5.685468e+00   -3.153540e+00    5.179457e+00   -1.849448e+00   -7.065775e+00   -2.641264e+00    1.432910e-02 
  -2.324644e+00    3.171192e+00   -2.291482e+00   -8.091106e-01   -7.750387e+00    4.778206e-01    1.584770e+00    2.711151e+00   -6.774744e+00    1.603678e+00 
   6.299691e-01    1.482683e+00   -3.113596e+00   -9.174440e-01   -2.908524e+00    4.469654e+00   -4.224132e-01    3.769810e+00   -2.670438e+00   -7.216311e+00 
   2.895591e+00   -6.329853e-01    7.325307e+00   -9.691423e+00   -3.622199e+00   -4.117123e-01   -4.778203e+00   -6.407147e+00    6.762674e-01    5.804838e+00 
  -5.328532e+00   -3.875770e-01   -1.641840e+01    6.135262e+00    2.113012e+00   -6.537170e+00    4.373477e-01    6.024497e+00   -7.396701e+00    1.314801e+01 
  -2.808420e+00    8.917688e-01   -8.197972e+00    4.799187e+00   -2.601350e+00    6.664187e+00   -1.907193e+00   -2.652550e+00   -3.075736e+00   -1.800340e+00 
   5.698161e+00   -7.799572e+00    3.658103e-01    2.399017e+00    2.347434e+00   -3.143740e+00    2.517072e+00    6.717252e+00   -4.268010e+00   -8.130965e+00 
  -9.323952e-01   -4.784507e-01   -6.856616e+00   -3.594037e+00   -4.995570e+00    3.401601e+00    2.205057e+00   -3.797389e+00   -3.647495e-01   -9.577196e-01 
  -2.587829e-01   -5.267624e-01    1.794510e+00    4.747023e+00   -3.795408e+00   -5.895380e+00    5.947750e+00   -7.070568e+00   -2.459633e+00    6.358528e-01 
  -3.169225e+00   -9.334226e+00   -4.840256e+00   -3.389082e+00    1.500024e+00   -4.372766e+00    2.065993e+00   -6.203852e+00    2.164360e+00    7.454880e+00 
  -4.205914e+00   -1.721319e+00    4.784899e-02    4.060852e-01   -1.543325e+00   -7.727266e+00   -1.423355e+00   -1.485656e+00   -4.546056e+00    1.619033e-01 
   5.016279e+00    3.134048e+00   -1.083521e+01   -2.562696e+00   -1.933545e+00    9.922549e+00   -2.390658e+00   -2.544847e+00    2.617112e+00   -5.970154e+00 
  -2.892328e+00   -8.338894e+00    1.089296e+01    6.111461e-01   -2.650065e+00    1.086675e+00   -2.152081e+00   -3.511030e+00   -2.023710e-01    6.274120e+00 
  -1.429650e+00    9.380726e-02    5.701403e+00   -5.281419e+00   -1.246633e+00   -7.749399e+00   -2.032677e+00    7.727446e-01   -1.491906e+00   -8.115363e+00 
   8.679232e-01   -1.277385e+00   -9.241166e+00   -3.073308e+00    1.568040e+00    2.097132e+00   -4.338024e+00   -3.297069e+00    1.277333e+00    3.560727e+00 
   4.785971e+00    1.374599e+00   -3.711070e+00    4.060142e-01    5.665986e-01   -2.611099e+00   -6.723172e-01   -3.173644e+00   -4.626208e+00   -3.221321e+00 
  -1.109993e+00   -3.047267e+00    1.461367e+00   -5.112600e+00   -1.277730e-01   -1.379135e+00   -6.429090e+00    1.013671e+00   -5.038117e-02   -5.155757e+00 
   1.310503e-01    5.575770e+00    1.587164e+01   -6.149425e+00   -5.694331e-01   -1.105787e+01   -9.772965e-01    1.746486e+00    3.037638e-01    3.519085e+00 
  -1.805835e+00   -2.226518e+00   -2.915884e+00   -2.363004e+00   -2.754368e+00   -1.678530e+00   -2.731622e+00   -1.198872e+00   -1.747616e+00   -2.967251e+00 
  -2.583961e+00   -2.085981e+00   -1.113406e-01   -1.409451e+00    3.678500e+00   -1.038305e+00    7.868067e+00   -7.045976e+00   -2.223861e+00   -4.803685e+00 
  -3.914962e+00   -9.070097e+00   -9.345668e+00    3.081479e+00    1.039217e+00   -3.030193e+00   -3.510485e-01   -2.941595e+00   -1.368985e+00    4.223660e+00 
  -6.525416e+00    1.336058e+01   -2.470631e+00    2.391633e+00   -2.513416e+00    8.524106e-01   -4.616529e+00   -5.154379e+00   -8.539470e-01   -7.821483e+00 
   5.180504e+00   -2.989117e+00   -4.320861e+00   -2.437545e+00    3.594434e+00   -2.178897e+00    4.472664e+00   -4.290925e+00   -1.311027e+00   -2.126933e+00 
  -3.556176e+00   -6.169653e-01   -4.820879e+00   -8.081966e-01   -1.048624e+00    3.515063e+00   -4.966701e+00    1.443831e+00    3.555595e+00   -4.259460e+00 
  -5.362712e+00   -5.618420e+00   -1.012579e+00   -7.588498e-01    5.952157e+00   -1.621936e+00   -4.874761e+00   -4.466125e+00    7.599847e+00   -1.507516e+00 


