2
24 25 25 10 
        1.538542e+00         5.766058e-01         8.587734e+00         2.003356e-01         7.466309e+00         2.261909e-01         8.554862e+00         1.961440e-01         6.636835e+00         2.247466e-01         8.437362e+00         2.063455e-01         8.226083e-02         6.008184e+00         2.644565e-01         1.593067e+00         3.260926e+00         2.122468e-01         8.599293e+00         2.020757e-01         9.946489e-01         4.387938e-01         2.769951e+00         2.633206e-01         5.272675e+00         1.536226e-01        -7.530268e+00         1.694569e-01         5.293934e+00         1.470932e-01        -3.950162e+00         1.110112e-01         8.650650e+00         2.010990e-01         8.468502e+00         2.036660e-01         1.416846e-01         1.143583e-01        -1.368492e+00         1.163527e-01         6.212971e+00         2.298935e-01         7.917912e+00         2.103049e-01        -5.771642e-01         1.301932e-01         2.373546e+00         1.148370e-01         0.000000e+00         1.000000e+00         0.000000e+00         1.000000e+00         0.000000e+00         1.000000e+00         0.000000e+00         1.000000e+00         0.000000e+00         1.000000e+00         0.000000e+00         1.000000e+00         0.000000e+00         1.000000e+00         0.000000e+00         1.000000e+00         0.000000e+00         1.000000e+00         0.000000e+00         1.000000e+00 
1000
  -3.127420e-01   -1.238196e-01    1.576878e+00    5.319171e-01   -3.124901e-02   -4.044363e+00   -5.055625e-01    3.682130e-01   -8.413607e+00    3.067811e-01    6.434463e+00   -4.630011e+00   -1.116853e+00   -2.246152e+00    2.915375e+00   -1.832963e+00   -3.539924e+00    3.163226e+00   -4.402392e-01    3.075944e+00   -4.276536e-01   -2.183955e+00   -1.474438e+00    1.545513e-01    5.222839e-01 
  -1.202163e+00   -4.223676e-01    2.095533e+00    1.277440e+00    4.473778e+00    1.097379e+00    1.055883e+00   -6.163330e+00   -2.855198e+00   -7.388448e+00    8.933792e-01    2.071894e+00   -3.194910e+00    2.448979e+00   -5.613478e-01    4.764721e-01   -5.485935e+00    3.307891e+00    3.221190e-01   -2.329892e+00   -5.692368e+00   -1.288080e+00    5.528029e+00    2.622114e+00   -3.197631e+00 
   1.321841e+00    8.433797e-01    6.448944e-01   -1.792946e+00   -1.092111e+00    8.186480e-01   -3.587727e+00   -1.117997e+00   -2.300065e-01    3.983322e-01   -6.254715e-01   -4.318198e+00   -1.083716e+00    8.371367e-01    2.019293e+00    2.905770e-01   -5.041693e-01    1.916038e-01   -6.983295e-01   -8.162975e-02    6.002498e-01   -2.859540e+00    9.523352e-02   -9.767316e-01    1.266344e+00 
   1.072783e+01    2.145567e+00    3.752017e-01    1.225091e+00    6.157482e+00   -2.451255e+00   -1.309382e-01    3.612980e+00   -1.253129e+00   -4.134652e+00    3.789330e+00   -5.584278e+00   -6.771774e+00    4.281417e+00   -1.504171e+00   -2.911734e+00    1.444788e+00   -1.324223e+00    1.815792e-01   -9.146313e+00   -4.512029e+00   -7.584493e+00   -5.981639e+00   -1.585382e+00   -5.163108e+00 
   1.411032e+00    5.880504e-01    1.084994e+00   -1.980651e+00   -1.782812e+00    1.003676e+00   -3.864766e+00   -1.268402e+00   -6.853710e-01    1.483689e+00   -5.648797e-01   -2.708667e+00   -1.875028e-01   -5.770911e-01    1.443684e+00    3.683357e-01   -1.071698e+00    3.166296e-01    2.193970e-01    6.486850e-01    7.210741e-02   -1.999574e+00    2.739592e-01    2.508675e-01    7.360538e-01 
  -1.869536e+00   -5.171678e+00    8.045517e-01   -1.242241e+00    1.364108e+01   -1.022000e+01    1.710494e+01    1.908395e+01    1.742799e+00   -4.289376e+00    4.759792e+00    8.228840e+00    1.652425e+01    1.673181e+00    3.077903e-01   -8.960607e+00    5.437875e+00    5.750352e+00   -2.287398e+00   -9.047419e+00    9.353873e+00    1.966838e+01   -1.075765e+00    1.177489e+01   -4.581600e+00 
   1.958043e+00    4.646564e-01    2.676701e-01   -9.620617e-01   -8.288781e+00    3.684410e+00   -7.775912e+00   -6.824130e+00   -3.539500e+00    1.930526e+00   -5.418718e+00   -1.307054e+00   -9.722497e+00   -1.080880e+00    6.772262e+00    5.440329e+00   -1.178644e+00   -1.045190e+00    2.076118e+00    3.820194e+00   -6.469364e+00   -6.115206e+00   -5.098280e+00   -1.213688e+01    4.852362e+00 
   2.371037e-01   -4.640257e-01   -3.660241e+00    1.657250e+00    6.367897e-01   -1.161346e+00    4.014837e+00    3.690084e+00   -6.664387e+00   -3.120710e-01   -2.402077e+00    5.487415e+00   -7.752602e+00   -2.643413e+00    1.072371e+01   -1.680652e+00    3.702100e+00    5.889953e+00    3.322570e+00    7.520738e+00   -4.900935e+00    1.014005e+01   -1.067229e+01   -6.825357e+00   -5.019447e+00 
  -1.002922e+01    7.650374e+00    1.376197e+00   -1.845283e+00   -1.531417e+00   -6.694750e+00   -3.412641e+00   -5.240861e+00   -7.865413e+00    4.890215e+00    1.992463e+00   -1.694388e+00    4.078778e+00   -6.966412e+00   -1.936219e+00   -6.014416e+00   -5.203569e+00    5.761048e+00    8.619766e-01    2.608706e+00    2.386742e+00   -2.452721e+00    6.963985e+00    1.215885e+01   -5.568491e+00 
  -2.915373e+00    2.070700e+00    9.864755e+00   -7.774003e-01    5.588580e+00   -4.779805e-01   -5.025551e+00   -2.081696e+00    5.023099e+00   -4.986802e+00    2.666933e+00   -4.120913e-01   -5.085271e+00    7.065319e-01   -3.338574e+00    3.753736e+00   -6.554534e+00   -6.475622e+00   -8.005444e+00    7.846669e-01    8.931802e-01    2.214199e+00    2.954187e-01    4.572115e+00    1.089530e+00 
   6.585313e-01    3.913270e-01    1.104359e+00   -1.824659e+00   -1.370022e+00    1.385874e+00   -3.454676e+00   -1.451140e+00   -3.801626e-01    4.496883e-01   -7.637241e-01   -4.203581e+00    4.561626e-02    1.968801e-01    1.794453e+00    6.397550e-01   -7.221001e-01    7.389871e-01   -9.823703e-01    3.900133e-02    1.469315e+00   -1.891834e+00    7.675978e-01   -1.244690e+00    2.210296e+00 
  -2.238728e+00    1.736268e+00    4.721204e+00   -2.455024e+00    2.996196e+00   -5.622256e+00    4.593311e-02   -1.092653e+00   -7.869329e+00    2.897268e+00    6.908723e+00   -5.307768e-01   -2.606275e+00    3.760349e-01   -1.427239e+00   -9.451491e-01   -2.221401e+00   -1.930016e+00    6.755200e-01   -6.000107e+00    5.619751e+00   -1.690388e+00    1.084093e+00   -5.180062e-01    2.220273e+00 
  -4.329140e+00    7.464787e+00   -1.055384e+00    8.925751e-01   -2.433345e+00    4.614670e+00    3.380595e+00    2.885391e+00   -4.000909e+00   -5.314883e-01    4.612850e+00   -9.856007e-01    5.922720e+00   -5.930162e+00   -8.943831e+00   -2.026163e+00    1.667007e-01    9.443407e-01    5.117752e+00   -3.407604e+00    2.071864e+00   -4.198739e+00   -1.449015e+00   -3.880188e+00    3.784083e+00 
  -2.761126e+00    3.749589e+00   -3.487325e-01    8.818835e+00    8.409009e+00    9.444622e-01    6.270193e-01   -5.101600e+00    2.444766e+00    1.780314e+00   -1.152393e-01    1.321709e+00   -1.316082e+00    3.789036e+00   -4.304411e-01    6.186055e-01    4.181587e+00   -1.359621e-01    1.445569e+00    7.843108e-01   -4.884663e+00   -7.084945e-01    4.316789e+00   -2.152451e+00   -3.267307e+00 
  -3.942524e-01   -5.360979e-01   -1.226656e+00    3.603887e+00    5.447345e+00    1.951047e+00    1.570527e+00   -1.379825e+00    3.899583e+00   -5.183601e+00   -9.296373e-02   -5.553581e+00   -3.487987e+00    6.017838e+00    3.944880e+00   -2.173669e+00    9.771365e-01    3.618615e+00   -4.590512e+00   -5.329673e+00    7.947554e+00   -1.102705e+00   -1.047819e+00   -8.564898e+00    5.038996e+00 
  -8.360147e+00    3.066261e+00    4.900974e-01    6.344587e+00    3.856485e+00    3.409545e+00   -1.273240e+00   -6.807410e+00    2.444452e+00    4.201642e+00   -3.246194e+00    2.571482e+00    1.914376e+00    1.426077e+00    1.817858e+00    3.252493e+00    2.956532e+00    3.852848e-01    1.966131e+00    6.024536e+00   -3.395061e+00    1.946798e+00    6.795987e+00   -2.299953e+00    6.923792e-01 
  -5.862606e-01   -2.548336e+00    2.877332e+00   -1.777404e+00    2.348346e+00   -5.120041e-01    2.646464e+00   -2.217199e+00   -6.444033e-01   -1.852975e+00   -6.209156e-01   -1.348510e+00    1.346676e+00   -2.105615e+00    1.062493e+00    2.870115e+00   -3.544385e+00   -2.965229e+00   -2.346057e+00    9.888762e-01   -5.994806e+00    2.733631e-01    2.515708e+00    1.371862e+00    2.565854e+00 
   8.712416e-01    4.034385e-01    9.328115e-01   -2.072144e+00   -1.374201e+00    9.070627e-01   -3.247667e+00   -1.317495e+00   -3.680261e-01    7.139572e-01   -7.962049e-01   -3.912798e+00    4.285638e-01    6.658863e-01    2.214115e+00   -1.995307e-01   -5.272120e-01    8.963468e-01   -1.107265e+00    7.105323e-02    1.693589e+00   -1.421495e+00    1.037363e+00   -8.042676e-01    1.748713e+00 
   7.731506e-01   -3.415315e-01    1.057699e+00   -1.902965e+00    7.507968e-01   -7.329041e-01   -5.613193e-01    1.656971e+00    3.831598e-01    3.363181e-01    1.357886e-01   -2.565477e+00    2.969220e+00    5.639393e-01    1.836290e+00   -1.086016e+00    3.768544e-01    1.487932e+00   -1.254836e+00   -1.173245e+00    3.522303e+00    1.238889e+00    7.674225e-01    1.312639e+00    1.082688e+00 
   4.845497e+00    3.369680e+00    4.043495e+00   -4.284891e+00    1.675597e+00   -1.803292e-01    2.124510e+00    6.133758e+00    1.047095e+00    2.315996e+00   -4.264060e-01   -1.000009e+01    2.093035e+00    6.294552e+00   -4.099614e+00    1.045570e+00   -1.036778e+00   -5.975267e-01    2.243672e+00    3.004299e+00    7.450223e-01   -1.047062e+00    4.222582e+00    7.683190e-01    6.954147e-01 
  -4.859750e+00   -2.187636e+00    4.796126e-01    2.605544e+00   -7.788278e+00    1.276877e+00   -7.553726e+00   -9.682695e+00   -3.138883e+00   -4.381199e-01   -7.293492e+00    1.243684e+01   -8.726623e+00   -1.309306e+01    9.795972e+00    7.892850e-01    2.379991e+00   -3.024848e-01    4.498283e+00   -1.943090e-01   -5.786944e+00   -2.704858e+00   -1.326110e+00   -5.448632e+00   -8.344951e-02 
  -1.224708e+00   -2.488035e+00    8.741978e-01    6.934230e+00   -5.112703e+00    7.292005e-01    1.105824e+01   -3.249763e+00    8.491662e-02   -5.223525e+00    1.530567e+00    4.949731e+00   -2.493367e+00    1.644098e+00   -8.576141e+00    4.609187e+00   -4.103863e+00    8.467309e-02   -1.402469e+00    4.862490e+00    2.738773e-01    9.358736e-01    1.476704e+00   -1.584008e+00    1.665141e+00 
  -1.903836e-01   -4.348999e-01    1.076673e+00    1.337040e+00   -3.283414e+00    1.361551e+00    1.288483e+00   -2.170372e+00   -6.063281e-03   -1.292834e+00   -3.760327e-01   -1.447495e+00   -7.605714e-01    5.191164e-01   -1.463714e+00    2.047331e+00   -1.503926e+00    6.936123e-01   -1.003570e+00    1.493236e+00    1.432378e+00   -1.167034e+00    1.282772e+00   -1.144726e+00    2.135824e+00 
  -3.565465e+00    6.042586e+00    1.023328e+00   -8.071877e+00    1.894383e+00   -6.978005e+00   -2.815296e+00    2.702432e+00   -1.565789e+00   -1.301420e+00    1.263432e-01   -2.243562e+00    1.873854e+00   -2.372013e+00   -2.376344e+00    1.618530e+00   -7.534382e+00   -7.151535e-01   -3.474924e-01   -3.185719e+00    2.337986e-03   -2.838450e+00   -2.807384e+00   -1.396952e+00   -1.780124e+00 
  -1.774935e-01   -5.520200e-01   -1.026995e+00   -2.935052e+00    8.179199e-02   -1.997300e-01    2.697157e-01    6.895626e-03   -4.306679e-01   -7.627454e-01   -2.353507e-01   -1.448761e+00    1.934320e-01    4.081355e-01    2.083097e+00   -1.524655e+00    1.061918e+00    1.033029e+00   -3.032296e-01    3.299866e-03   -8.860738e-01   -3.039341e-01    1.914432e-01   -3.396239e-01    5.408547e-01 


   1.467094e+00    2.542020e+00    4.306386e+00   -6.915132e-01   -2.785768e+00    1.683261e+00    2.908777e+00   -1.892174e+00   -5.389150e+00   -2.425792e+00   -7.810266e-01    4.339062e+00   -7.615028e-01   -2.585511e+00   -1.791478e+00    3.187161e+00   -1.908692e+00   -1.328548e+00    1.480202e+00    1.570507e-01   -2.657670e+00    3.088547e-01   -3.426160e+00    2.028529e+00   -1.574858e+00 
   6.894433e+00   -3.741277e-01   -2.341866e+00    1.623440e+00   -5.297158e+00    6.288715e+00   -8.193486e+00    2.313361e+00    8.026958e+00   -5.678529e-01   -3.138027e+00    6.907104e+00    4.476587e+00   -4.963199e+00    4.646541e+00    5.558943e-01    1.230345e+00   -4.982525e-01    4.955135e-01   -2.008290e+00   -2.013115e+00   -2.221441e+00    1.541414e+00   -5.650745e+00    2.916180e+00 
  -6.439373e+00   -1.880543e+00    1.637371e-01   -7.695969e-01   -2.670954e-01   -1.976220e+00    5.793826e+00    1.143849e+00    6.857629e-01    1.097731e+00   -1.636447e+00    4.992240e+00   -2.927934e+00    3.360089e+00    1.121373e+00    2.185391e+00    5.555964e-01    6.906594e-01    3.203098e+00   -2.273949e+00    1.595174e-01   -7.329702e-01    1.205738e+00    5.325162e+00    1.346305e+00 
   8.195202e-02   -9.881562e-01    3.816022e+00    4.043281e+00    8.322967e-01    4.562364e-01   -5.713070e+00    3.804674e-01   -3.034897e+00   -1.890173e+00   -1.789723e+00   -1.555567e+00    3.987007e+00   -9.128390e-01    7.200685e+00    2.046701e+00    5.270391e+00    3.112372e+00   -7.066147e-02   -1.863035e+00    9.537608e-01    9.057361e-01   -3.568998e+00    3.520673e+00    2.515423e-01 
   2.910220e+00    2.480436e+00   -1.616778e+00   -4.708989e+00   -1.563859e+00    5.539318e-01    3.910311e+00   -3.609161e+00   -2.524526e+00    1.331842e+00    1.820139e+00   -7.532778e+00    6.361694e+00   -1.743685e+00   -5.313527e+00    5.481542e-01    5.741748e+00   -1.127332e+00    2.697608e-01   -9.808212e-01   -2.567789e+00   -5.744237e-01   -9.618856e-01   -2.981586e+00   -6.008265e+00 
   5.010239e-01   -5.396016e+00   -5.617333e+00   -7.984010e-02    1.248137e+01    6.156077e+00    2.342119e+00   -1.264841e+00   -8.866078e-01    1.104346e+01    1.492176e+00   -3.953139e+00    3.851549e+00    1.333845e+00    3.548959e-01   -4.853108e+00    2.677916e+00    2.469959e-01    1.580877e+00    1.231846e+01    7.176178e+00    1.971003e+00   -2.903709e+00   -1.064080e-01    6.269740e+00 
  -1.610737e+00   -9.130349e-01    5.365595e+00    1.936610e+00   -1.180950e+01    3.800280e+00    2.247844e+00   -2.789484e+00    2.522075e-01   -8.390197e+00   -8.513296e-01    5.766608e+00   -1.710691e+00    1.653309e+00   -1.042165e+01    6.565373e+00   -2.649337e+00   -5.642789e+00    9.188445e-01   -1.187478e+00   -4.619469e+00    5.483878e+00   -4.553641e+00    8.375962e+00    1.558049e+00 
   1.450518e+00    2.804021e+00   -4.025796e+00   -4.400245e-01    9.209757e+00    6.022997e+00    1.156729e+00    5.146499e+00   -5.528216e-01    3.623294e+00    4.947306e+00   -1.829567e+01    4.057022e-01   -1.590028e+00   -3.305471e+00   -9.418258e+00   -1.341454e+00    2.878334e+00    2.062644e+00   -3.156682e+00    6.224050e+00    5.406870e-01    1.177065e+01   -1.121613e+01   -4.694973e+00 
   3.042186e+00    2.849442e+00   -6.330549e+00    6.293648e+00    7.923521e+00    2.968753e+00   -1.737898e+00    5.550508e-01    2.043272e+00    1.361090e+01    4.304072e+00   -7.874218e+00    6.911716e+00   -3.932871e+00    7.101508e+00   -5.079445e+00    5.039650e+00   -4.489624e+00    8.697887e-01   -5.562846e+00    6.096773e+00    2.696131e+00   -2.414981e+00   -1.154631e+00   -8.098130e-01 
   2.816317e+00    2.230646e+00   -2.394771e+00    1.008022e+00    6.485923e+00    4.012359e+00    1.911643e+00    4.953740e+00    9.165344e+00    8.108855e-01    4.550300e-01   -3.336480e+00    1.750675e+00   -7.339804e-01   -6.881680e-02    7.098671e+00   -1.377991e+00   -5.323572e+00    8.458756e-01    4.679722e+00    3.746907e+00    4.538565e+00   -8.236048e+00    2.267470e+00   -2.001706e+00 
  -2.233848e+00   -3.209423e+00   -3.829544e-01   -7.427149e-01   -6.439471e+00   -6.696154e-01   -1.564181e+00    3.607054e+00   -4.319191e+00   -1.452844e+00    1.663107e+00    2.312876e+00   -2.116081e+00   -1.464787e+00    7.451400e-01   -6.329063e+00    1.425051e+00   -1.180994e+00    1.950841e+00   -1.119688e+00   -6.323684e-02   -6.008460e-02    8.427394e+00   -6.453271e+00    3.008442e+00 
  -1.429128e+00    2.763169e+00    8.168259e-01   -2.334032e+00    7.771088e-01   -1.728464e+00    1.113585e-01   -3.583874e+00    7.080350e+00    6.499906e+00   -4.419910e-01   -2.786297e+00   -1.143954e+00    3.117348e+00   -8.079623e+00   -3.355140e-01   -1.678311e+00    6.668548e+00   -9.934887e-01   -2.885988e+00    1.454751e+00   -2.386356e+00    1.795101e+00    4.046707e-01   -1.385395e+00 
   1.638749e+00    2.621653e+00    1.077074e+01    1.433112e-01   -3.836301e-01    4.669119e+00   -5.202153e+00   -8.206487e-01   -2.126316e+00   -3.708959e+00   -3.066027e-01   -2.351738e+00   -2.078526e+00    6.184430e+00    6.512600e+00   -1.979059e+00   -4.564268e+00   -1.580666e+00   -6.306263e-01   -5.501763e+00   -2.767558e+00    2.072505e+00    1.644550e-01   -1.175553e+01   -4.351304e+00 
  -5.136944e+00   -8.996344e-01   -7.834208e+00    1.756278e+00    1.152975e+01   -5.700199e+00   -3.759126e+00    1.804911e+00   -5.826302e+00    7.314202e+00    1.673637e+00   -9.416856e-02    2.336747e-01    7.115955e+00    1.614571e+00   -6.918663e+00    3.073695e+00    1.253543e+01    2.430735e+00    3.630931e+00    1.011824e+01    4.688564e+00   -4.796516e+00   -1.767900e+00    4.148701e+00 
  -2.263062e+00    1.480600e+00    3.250959e+00   -2.165945e+00    1.086235e+01    1.656672e+00    6.034766e+00    4.372352e+00   -3.281507e+00    3.630220e+00    5.669309e+00   -4.194376e+00   -1.373712e+00   -5.726831e+00   -3.375251e+00   -2.876896e+00   -3.561725e-01   -2.440517e+00    1.223209e+00    7.371698e+00    1.675970e+00    2.456291e+00   -5.889707e+00    5.703556e+00    2.114003e+00 
  -2.896143e+00   -1.324419e+00   -2.071281e-01    1.374424e+00   -1.084365e+01   -5.885721e+00    3.507649e+00   -1.509177e+00    1.238787e-01   -7.748360e+00   -2.367419e+00    1.051247e+01    5.403532e+00   -4.385426e+00   -4.746127e-01   -1.056041e-01    5.551049e+00   -3.926760e+00   -5.979747e-01   -4.345678e+00   -2.250972e+00    1.801799e+00   -3.289323e+00    7.038937e+00    7.585617e-01 
   5.492986e+00    5.528146e-01   -3.470563e+00    4.261138e+00   -5.197934e+00   -2.393257e+00   -4.443020e+00    8.706506e-01   -6.925250e+00    1.568405e-01   -3.357971e+00    5.113703e+00    2.299137e+00    2.101662e+00   -2.116648e-01   -7.285242e+00    1.659152e+00   -2.869622e+00   -8.664251e-01    3.148520e-02   -7.602728e-02    1.088294e+00    8.669747e+00   -8.579653e-01    1.856224e+00 
   2.800705e+00    1.226386e+00    1.365744e+00   -4.580678e+00    6.113379e+00   -7.903383e-02    2.862974e+00   -1.694757e+00    3.598010e+00    8.781327e-01   -1.601975e+00   -3.927091e+00    2.248491e+00    3.311772e+00   -2.711058e+00    4.360935e+00    1.488672e+00   -9.523821e-01    1.727253e+00    1.950190e-01    4.839267e-01   -1.412481e-02   -6.355980e+00    5.208234e+00   -3.171995e+00 
   1.077725e-01    1.417600e+00    8.664038e-02   -5.288909e+00    4.253626e+00    2.651794e-01    2.583632e+00   -2.350202e+00    2.379948e+00    1.104373e-01   -1.078249e+00   -4.489790e+00   -3.443874e+00    3.759714e+00   -2.156298e+00    3.092585e+00   -4.645088e+00    3.432077e+00   -1.120050e+00    1.688603e+00    3.984161e-01   -2.970243e+00    2.024196e+00   -5.201403e+00   -3.649078e+00 
  -3.840922e+00   -1.619119e+00    5.890948e+00   -1.835979e+00    2.383039e-01   -3.410181e+00    7.909190e-01   -3.815767e+00   -4.705500e-01    1.368219e+00   -3.305171e+00    6.899052e+00    2.777466e+00    6.056109e-01    3.455828e+00    4.341907e+00    7.463881e+00   -5.948305e-01    6.730466e-01   -5.269684e+00   -1.868898e+00   -2.160189e+00    5.686156e+00   -5.219543e+00    2.298692e+00 
  -4.549816e+00   -6.444056e-01    4.641834e+00    2.859960e+00   -8.862075e+00   -9.751833e-01   -3.361027e+00    1.223566e+00   -8.798606e-01   -4.831511e+00   -1.770938e+00    1.792596e+00   -4.537270e+00    3.743132e+00    1.152243e+01    7.611262e+00   -3.351019e+00    7.347176e+00   -1.156662e+00   -7.028548e-01   -7.351253e+00   -3.982377e+00    5.527701e+00   -2.189577e+00   -5.154600e-01 
   1.685853e-01    1.251726e+00    8.256450e-03    2.651943e+00    3.200918e+00    2.200738e+00    3.215535e+00   -3.563841e+00    5.707290e+00    5.131957e-01    3.228208e+00   -9.595477e+00   -3.589753e+00    1.049895e+00   -7.256163e+00    5.398106e-01   -9.573272e-01    5.085650e+00    5.973396e-01    1.189498e+01   -1.170785e+00   -9.940514e-01   -2.219141e+00    8.161941e-01    1.170666e+00 
  -3.353555e-01    2.573935e+00   -5.203932e+00    3.889574e-01    1.598594e+01    7.981683e-01    2.492594e+00    1.736917e+00    4.103115e+00    1.806252e+00    7.784350e+00   -1.326706e+01    5.277671e-01    6.326405e+00   -1.252803e+00   -4.734338e+00   -1.300119e+00    4.599062e+00   -1.370038e+00   -3.263470e+00    5.079341e+00    6.602861e+00   -1.562028e+00   -8.525068e+00   -7.444074e+00 
   6.190391e-01   -6.202783e-01    1.444591e-01    9.473148e+00   -8.479672e+00    1.308247e+00   -9.752395e+00    9.592694e+00    6.931590e-01   -6.185577e+00   -4.296911e+00   -1.669140e+00    2.137855e+00    3.116178e+00   -3.953203e+00    1.738761e+00    2.400326e+00    5.605049e+00    1.344200e+00    6.452059e+00   -4.816794e+00    4.404929e-01    1.826654e+00   -8.662184e-01   -9.700279e-01 
  -2.071767e+00   -9.526391e-01   -2.650333e+00    5.599432e+00    8.838381e+00    8.167983e-01   -4.941142e+00    4.184403e+00   -3.746488e-01    6.147438e+00    5.027210e+00   -1.047751e+01    2.249538e+00    2.525581e+00   -1.046980e+00   -4.220979e-01   -1.337693e+00    1.092606e+01   -1.689527e-01   -1.692101e-01    2.955455e+00    1.274307e+00   -7.689278e+00   -1.242175e+00   -5.827867e-01 
   4.505205e+00    1.012037e+00    1.312947e+00   -3.148249e+00   -4.374445e+00   -3.218249e+00   -6.313753e-01   -3.713942e+00   -4.788297e+00   -1.246818e+01   -2.986417e+00    5.689971e+00    2.777808e+00   -2.930970e+00    2.426553e+00    3.489012e+00    5.073184e-01   -9.605639e+00    6.806202e-01    6.341613e-01   -5.566869e+00    2.308063e+00   -7.295650e+00    5.869258e+00   -2.666682e+00 


  -3.419190e+00   -3.078049e+00   -4.078963e+00   -4.309580e+00   -2.619188e+00   -3.153631e+00   -1.278412e+00   -3.826218e+00   -3.029659e+00   -7.071469e+00 
  -6.959169e+00    1.003133e+00    1.843482e+00    7.741378e+00   -3.080902e+00    3.319995e+00   -5.952547e+00   -1.028353e+01   -9.638095e+00    5.563173e+00 
  -1.131368e+00    2.596158e+00   -3.165805e+00   -3.200702e+00   -1.021827e+01    1.103148e+00    2.611539e+00    2.304736e+00   -7.842779e+00   -4.918985e-01 
   6.027019e-01    7.042803e+00   -1.004724e+01    7.331173e-01   -4.384261e-01    9.523983e+00    3.216923e+00    5.053682e+00   -5.897664e+00   -1.040707e+01 
   3.979399e+00   -4.601111e+00    9.491891e+00   -1.291845e+01   -1.944815e+00   -9.416105e-01    2.721460e-01   -5.414804e+00   -2.487169e+00    5.665993e+00 
  -6.752560e+00   -1.848449e+01   -2.354847e+01    1.090288e+01    2.099194e+00   -4.238512e+00   -1.711971e+00    6.537672e+00   -1.345023e+01    2.282398e+01 
   9.404775e-01   -9.404270e+00    1.864492e+00    6.252462e+00   -3.819497e+00   -2.954346e+00    5.147802e+00   -8.922359e+00   -1.831667e+00    6.906247e+00 
  -5.023742e+00   -5.017764e+00   -1.449929e+01    9.276533e+00    1.967876e+00   -9.667067e+00    7.415157e+00    4.882219e+00    3.341178e+00   -1.666813e+01 
   4.238769e+00    6.628823e+00    6.532564e+00   -8.679874e+00   -5.153556e+00   -7.544899e+00    2.911769e+00   -6.360318e+00    1.313504e+00   -6.415156e+00 
   5.684695e+00    4.125016e+00    1.205045e+01    5.668123e+00   -3.169190e+00   -1.251223e+01    2.683657e+00   -1.234408e+01   -5.021385e+00   -5.804226e+00 
   2.564352e+00   -1.683052e+01   -1.386106e+01   -1.125740e+01   -3.585224e-01   -5.271565e+00   -6.513544e-01    2.159117e-01    8.702690e+00    1.831963e+01 
  -7.414901e+00   -7.048104e+00   -1.161126e+01    5.217938e+00   -4.091143e-01   -1.839464e+00   -2.888978e+00   -3.021734e-01   -5.293683e+00    5.006188e+00 
   2.421331e+00   -1.645708e+00   -2.099628e+01   -7.656069e+00   -1.982245e+00    2.173358e+01   -2.565410e+00   -4.585260e+00    9.753649e+00   -1.767853e+01 
  -2.863313e+00   -2.716161e+00   -3.218379e+00    7.200829e-01   -7.207853e+00   -2.431331e+00   -1.143857e+01    1.248999e+01   -1.716993e+00    7.336884e+00 
  -6.028070e+00   -1.760162e+00    1.122371e+01   -8.067440e+00   -3.612575e-01   -1.170059e+01   -3.601287e-01   -4.367182e+00   -8.767436e+00    1.203085e+00 
   3.474892e+00   -9.223212e-01   -1.317113e+01   -2.673308e+00    3.883506e+00    1.351065e+01   -4.514323e+00   -1.235705e+01    1.236688e-01    5.585175e+00 
   3.021996e+00   -1.939685e+01    1.418351e+01   -5.668970e-01    5.474964e+00    9.182608e+00   -2.048232e+00    3.261639e+00   -4.300622e+00   -1.152234e+01 
  -1.466640e+00   -3.655604e+00   -3.166563e+00   -6.472831e+00    2.424733e+00   -2.272691e+00   -1.427757e+01    1.012144e+01   -1.935659e+00    1.922997e+00 
  -2.096493e-01    9.655213e+00    1.580314e+01   -1.200913e+01   -9.539136e-01   -1.683749e+01    8.775964e-01    2.845503e+00    5.496681e+00   -1.333347e+01 
  -2.505565e+00   -3.304635e-01   -6.403854e+00   -6.116891e+00   -2.589631e+00   -4.179223e+00   -2.169525e+00   -3.539950e+00   -3.271079e+00   -5.368924e+00 
  -1.788197e+00   -4.746908e+00    1.026743e+01   -3.036405e+00    2.797690e+00   -1.021237e+01    9.895190e+00   -1.186606e+01    2.450150e+00   -1.711395e+00 
  -6.111135e+00   -9.314249e+00   -7.894212e+00   -8.187601e+00    3.371589e+00   -6.380678e+00   -2.712914e+00   -1.084456e+01    6.130741e+00    6.252307e+00 
  -8.925398e+00    6.363327e+00   -1.715730e+00    4.073784e+00   -5.381425e+00   -1.236480e+00   -5.025952e+00   -1.428906e+01    1.153944e+00   -7.127680e-01 
   2.998181e+00    1.469903e+01   -1.742512e+01   -1.118844e-01    7.285443e-01   -3.436167e+00   -2.019313e+00    4.740521e+00    3.054918e+00   -1.416279e+01 
  -5.649635e+00   -1.230068e+00   -1.576310e+01    1.038392e+01   -3.519319e+00    1.549075e+01   -8.122620e+00    1.147639e+01    1.946822e+00   -8.681201e+00 
  -4.891136e+00   -9.118326e+00   -1.536592e+00   -9.065119e-01    7.144493e+00   -4.635929e+00   -4.563782e+00   -3.598430e+00    7.268573e+00   -1.129073e+01 


