2
24 25 25 10 
1
        1.531881e+00         6.101279e-01         1.351545e+00         3.111846e-01         7.479645e+00         2.605755e-01         8.576832e+00         2.152491e-01         6.656456e+00         2.292300e-01         7.921451e-02         5.996417e+00         8.231131e-02         6.007533e+00         2.639738e-01         1.581228e+00         3.264932e+00         2.078120e-01         4.037257e-01         1.459551e+00         9.849610e-01         4.383062e-01         2.761566e+00         2.498760e-01         5.287255e+00         1.665050e-01        -7.550885e+00         1.856372e-01         5.313642e+00         1.558147e-01        -3.952506e+00         1.140395e-01         8.673077e+00         2.182358e-01         1.497383e-01         1.108506e-01         1.400411e-01         1.104808e-01        -1.366889e+00         1.147536e-01         6.238213e+00         2.297646e-01         2.051495e-01         1.395447e-01        -5.491089e-01         1.308684e-01         2.398548e+00         1.172636e-01         0.000000e+00         1.000000e+00         0.000000e+00         1.000000e+00         0.000000e+00         1.000000e+00         0.000000e+00         1.000000e+00         0.000000e+00         1.000000e+00         0.000000e+00         1.000000e+00         0.000000e+00         1.000000e+00         0.000000e+00         1.000000e+00         0.000000e+00         1.000000e+00         0.000000e+00         1.000000e+00 
2000
   2.183218e+00    1.704265e+00   -1.728260e+00   -6.788782e-01   -1.317878e+00   -1.744805e+00    1.193459e+00   -1.323423e-01   -1.141556e+00    7.091979e-01    2.601878e+00    1.210188e+00   -1.657754e+00   -1.946233e+00   -2.518902e+00    1.316963e+00    1.430051e+00   -2.585231e+00    3.527230e+00    3.517520e+00   -2.500626e+00   -1.079646e-01    1.241912e+00    1.540128e+00   -1.490672e+00 
  -1.427998e+00   -3.546583e-01   -5.538571e-01    5.218001e+00   -2.939132e+00    3.973958e+00    2.533311e-01   -1.473535e+00   -1.994908e+00    6.329394e+00   -2.677527e+00   -3.557160e-01   -1.655928e+00    6.213062e-02    3.089032e+00   -2.040046e+00    2.145557e+00   -6.386459e+00   -1.405180e+00   -5.760071e-01   -3.557741e+00   -1.084200e+00    9.553739e-02    2.761353e+00    1.421333e+00 
   1.513217e+00    4.001167e+00    6.176871e+00   -3.222572e+00   -3.022039e+00    1.196356e+00   -3.927605e+00   -6.822517e-01   -2.311382e+00    4.359783e+00   -2.248873e+00   -2.985713e+00   -2.088908e+00   -5.048668e-01   -1.376992e-01    6.400530e+00   -3.416910e+00   -7.506987e+00    1.229775e+00   -2.453287e-01   -1.628012e+00    1.398875e+00    5.596321e-01   -3.020955e+00   -3.393220e+00 
  -1.386530e+00   -1.723085e+00    1.702432e+00    4.451348e+00    1.844950e+00   -2.111023e+00    3.322622e+00   -1.071472e+00   -2.543833e-01    3.796524e+00   -9.639325e-01    3.232754e-01    2.476408e+00    5.789411e-01    4.048127e+00   -3.398021e+00    6.339677e+00   -5.097100e+00   -3.667744e-01   -4.582829e+00   -3.347868e+00    9.560615e-01   -4.129288e+00   -2.300633e+00    5.765641e+00 
   8.688620e-01   -1.257371e+00    1.813934e-01    2.413785e+00    6.885013e-01   -2.105681e+00   -3.632427e-01    1.312220e+00    3.070783e+00    1.215338e+00    2.750933e+00    1.757731e-01   -6.548069e-01    2.520416e-01   -2.948296e+00   -2.495748e-01    3.405779e+00   -2.525275e-01   -5.716479e-01   -2.146581e+00   -1.856239e+00   -6.204835e-01   -1.236040e+00   -2.652671e+00    9.091478e-02 
   2.696571e+00    8.553927e-01   -2.590267e+00    1.137693e+00   -1.654303e+00   -2.761584e+00   -2.288661e+00   -2.511335e+00    1.325330e+00    5.145282e-01    5.434052e+00    8.389269e+00    4.570799e+00   -3.118567e+00   -2.119089e+00    5.463251e-01   -1.545928e+00   -3.974527e+00   -4.315886e-01    2.190628e+00    7.184680e+00   -2.416049e+00    4.011505e-01    7.102568e-01    1.860470e+00 
  -1.024443e+00    7.666092e+00   -1.143377e+00   -2.814679e+00   -2.698244e+00    1.373968e-01    5.237309e-02    2.558677e-01   -3.316419e+00    1.383020e+00    6.500998e+00    2.823828e+00    3.882106e+00    4.872062e-01   -1.559047e-01    9.582508e-01    3.041468e+00   -1.600568e+00   -9.989911e-01    3.437013e+00    4.829631e+00   -3.428361e+00   -5.199904e-01    2.980095e+00   -3.430013e+00 
  -1.514075e+00    6.134032e+00   -3.917190e+00   -4.936328e+00   -4.856647e+00    2.417394e+00   -3.307669e+00   -3.982853e+00   -1.511853e-01   -3.385251e-02    6.769711e+00    1.348584e+01    6.195513e+00    3.244774e+00    6.326818e-01    6.718675e+00    2.335489e-01   -6.164036e+00   -3.447627e+00    8.409526e+00    5.421684e+00   -3.072957e+00   -2.724433e+00    2.216184e+00   -4.027620e+00 
  -3.355999e+00    2.314248e+00    4.252979e+00    3.443436e-01    1.579497e+00   -4.473182e+00    2.994221e+00    2.599118e+00   -8.609905e+00    7.447195e+00    1.866091e+00   -1.114444e+01   -5.304632e+00   -5.375593e+00    3.340773e-01   -8.282558e+00    2.863037e+00    7.214397e+00    7.343684e+00   -1.542185e+00   -9.823456e-02   -6.078936e+00    3.456996e+00    4.759112e+00    1.346759e+00 
  -4.968340e+00    6.609426e-01    7.556430e+00   -1.499516e+00    5.254569e+00   -2.572895e+00   -1.226587e+01   -4.105636e-01    4.689234e-01   -5.556522e+00    3.948557e-01   -6.074144e+00   -4.253793e-01    7.174191e-01   -3.423979e+00   -4.594336e+00    3.250088e-01   -4.146245e+00   -3.849326e+00    2.743688e+00   -2.842263e+00   -2.948664e+00    4.369449e+00   -6.879324e+00   -3.984691e+00 
   2.636064e+00    2.245056e-01   -1.533650e+00   -5.983858e+00    5.206183e+00   -1.949271e+00    4.250181e+00   -2.754543e-01    2.111051e+00    5.032871e-01   -1.209011e+00   -2.901832e+00    3.031225e+00   -6.711648e-01    8.849882e-01    3.359963e+00    1.855385e+00    1.601951e+00    7.767101e+00   -4.863806e+00    1.413560e+00    5.024041e+00   -3.458068e-01    2.264424e-01    4.913852e+00 
  -4.816446e-01   -3.698091e+00   -6.168217e+00    1.084615e+00    1.588495e+00   -4.622710e+00   -7.017141e+00   -5.443352e+00   -3.669136e+00    2.106464e+00    1.642479e+00   -6.682425e-01   -3.755504e+00    3.782314e+00   -1.772004e+00   -2.912208e+00    1.607380e+00   -1.377187e+00    4.835001e+00   -7.175181e+00   -3.128999e+00   -8.273365e+00    2.727573e+00   -3.479532e+00    3.013036e+00 
   9.654581e-01    1.120680e+00   -6.049393e-01   -6.360605e+00    1.744675e+00    4.452161e+00    1.907176e+00   -8.237716e-01    7.249931e+00   -1.998363e+00   -3.921937e+00   -6.734583e-01    1.492673e+00   -4.596847e-01    2.384775e+00    3.969450e+00   -2.944756e+00    2.092569e+00    3.351733e+00    4.792251e+00    3.692834e+00    7.239407e+00   -2.544328e-01    3.057799e+00    2.075181e+00 
  -2.503749e+00    4.063333e-01    1.773080e+00   -9.994525e-01    3.029158e+00    2.772999e+00    8.062673e-01   -3.411717e+00   -4.512245e+00    2.394861e-02   -4.939270e+00    2.500433e+00    3.327559e+00    1.127217e+00    4.636897e+00   -2.468990e+00   -1.996637e+00    6.594533e-02    1.623145e+00   -3.561759e-02   -3.399793e+00    5.812384e-01   -3.126488e+00    3.304989e+00    5.430142e+00 
   1.313802e-01   -4.653222e+00   -2.960629e+00    5.710086e-02   -2.993967e-01   -5.162527e+00   -4.426518e+00   -3.050273e+00    4.950317e+00    2.264494e+00    2.214029e+00    3.358983e+00    5.191164e+00    5.277453e-01   -1.160298e+00    3.115877e-02    2.005621e+00   -3.436207e+00   -3.642828e+00   -1.360399e+00    2.071648e+00    1.987079e+00   -2.895993e+00   -4.941353e+00    3.505355e+00 
  -1.470232e+00    8.822998e-01    1.192573e+00   -2.482201e+00    2.264471e+00    2.928055e+00   -9.537625e-01   -2.258548e+00   -2.771539e+00   -1.999683e+00   -2.891919e+00    2.419285e+00    1.598750e+00    1.192146e+00    1.309688e+00   -5.000800e-02   -3.501758e+00    2.338205e+00    1.298708e+00    1.347621e+00   -2.809880e+00   -5.650463e-01   -1.509493e+00    2.618822e+00    2.608036e+00 
  -4.648207e-02   -1.230297e+00   -5.210388e-01   -8.396190e-01   -3.670179e+00   -3.203614e-01    1.595986e+00    4.722203e+00    1.092137e+00    2.447775e+00   -6.010577e+00    3.562863e+00    8.310207e-01    4.033269e+00    1.060692e+00   -2.486690e+00    5.738900e+00   -8.915312e+00    1.953742e+00    4.919506e-01    2.148582e+00   -4.014248e+00   -3.986637e-01    6.029200e-01    7.289280e+00 
   9.804783e-01   -2.161565e+00   -5.106666e-01    2.391607e+00    3.603039e-01   -3.770579e+00   -7.280419e-01    1.238206e+00    4.054605e+00    1.371041e+00    3.611908e+00    6.737446e-01    4.673389e-01    7.084600e-01   -4.033735e+00   -3.183003e-01    4.523386e+00   -9.878409e-01   -1.705085e+00   -2.582446e+00   -1.882949e+00   -2.162592e-01   -1.315610e+00   -3.990386e+00    4.580854e-01 
   4.325015e+00    2.457822e+00    2.744085e-01    1.318915e+00    5.633789e-01   -6.561565e+00    2.121601e+00   -1.764397e+00    3.783169e-01    7.636602e-01    4.015659e+00   -8.708742e-01    1.843851e+00   -5.477627e+00    1.151166e+00   -3.959253e+00   -4.571189e-01    5.608290e-02   -4.181828e-02    2.224460e+00    1.034679e+00    4.176469e-01   -4.801905e+00   -2.115514e+00    9.599216e-01 
  -1.847949e+00   -5.623841e+00    1.670813e+00   -2.642211e+00    2.515594e+00    2.078911e+00   -4.087060e+00    4.796082e+00    1.536272e+00    1.688896e+00   -5.470788e+00    8.186365e-01   -5.300399e+00   -2.667663e+00    7.043307e+00    2.688829e+00    3.242166e+00   -1.781134e+00   -4.332412e-01    2.506096e+00   -9.234547e+00   -6.077018e+00   -1.156964e+00    2.966041e+00   -1.089274e+00 
   2.975388e+00    4.652424e+00    2.745545e-01   -8.107563e-01   -3.005045e-01   -1.932972e+00    2.307134e-02   -8.588139e-01   -2.334293e+00   -2.356457e+00    2.526287e+00    3.593138e-01    6.300569e+00   -5.975597e+00    8.201091e-01   -5.452561e+00    6.461517e-01   -1.523856e-01    1.158005e+00   -4.552681e+00    1.282007e+01   -4.665701e+00    3.873166e+00    5.657902e+00   -5.759009e-02 
  -5.629421e-01   -3.063098e+00   -1.178970e-01    3.602907e+00   -6.550549e-01    1.787949e+00    1.696203e+00    6.032270e+00    2.894889e+00    2.455508e+00   -4.909484e+00   -2.641995e+00   -7.290661e+00   -2.042749e+00    1.632510e+00    1.082578e+00   -5.675614e+00    3.255070e-01   -2.881601e+00    5.797088e+00    4.901667e+00    4.162117e+00    2.696128e+00    1.160090e+00    2.711499e+00 
  -1.434122e+00   -3.532528e-01    3.037030e-01   -2.410369e+00    2.487269e-01    1.225304e-01    4.336918e+00    1.388833e-01    7.664379e-01    1.804194e+00   -2.456481e+00   -8.048382e-01   -5.356657e-01   -3.660904e-01   -4.498772e-01    4.291121e+00   -1.824506e+00    7.926888e-01   -1.038127e-01    7.814177e-01    1.683497e+00   -2.595826e-01    1.218911e+00   -1.214316e+00    2.673886e+00 
  -1.039750e+00    3.853489e-01    1.019680e-01   -4.607615e+00    1.108680e+00   -2.010662e+00    4.648569e+00   -2.081653e+00    3.311102e-01    2.066571e+00   -8.403584e-02    4.797156e-01    2.444628e+00    4.957672e-01   -2.140020e+00    4.509395e+00    1.333597e+00    3.180113e-01    8.406700e-01   -2.232156e+00   -8.187036e-01   -1.916660e+00   -4.819698e-01   -2.812423e+00    2.206752e+00 
  -1.880909e+00   -1.691151e+00   -6.768408e-01   -6.742186e-02   -1.759744e-02    1.032783e+00   -7.047991e-01    7.288196e-01   -1.051023e+00   -3.369445e-01    3.411074e+00   -4.624341e-02    9.788045e-01    1.554648e+00    2.378288e-01   -3.057107e+00   -4.409832e-01   -1.937547e+00   -1.741700e-01   -3.999736e-02   -9.181044e-01    4.913999e-01    2.419269e-02   -6.629299e-01   -7.484677e-01 


   4.083132e-01    1.860055e+00    3.844424e+00   -1.367419e+00    5.962760e+00   -6.052761e-01    4.078086e+00   -2.661403e+00    9.229907e-01    1.534127e+00    1.008183e-01   -5.577979e-01   -6.657763e-01   -2.321079e-01   -3.545705e+00   -1.558414e-01    2.971235e+00   -5.835052e+00   -1.432211e+00    4.978319e+00    2.384222e+00    4.100112e-01   -2.013653e+00    2.677888e+00    2.413151e+00 
   4.190648e+00   -2.370076e+00   -7.645118e+00    7.209291e+00   -1.609578e+00    1.920661e+00   -6.635312e-01    8.309571e-01    5.767205e+00    1.656181e+00    4.006125e-01   -2.935144e+00    4.721623e+00   -5.281956e+00   -7.347303e-01   -3.761419e+00   -3.102975e+00   -4.214413e+00   -2.509386e-02    2.840460e+00   -6.445173e+00    7.191324e-01   -2.751536e+00    1.006024e+00   -1.534296e+00 
  -3.840250e+00    8.275915e-01   -1.265486e+00    4.784547e+00    2.548056e+00   -7.385350e+00    4.935057e+00    3.897386e+00   -6.583819e-01   -3.019264e+00   -9.665127e-02   -1.044680e+01    1.366177e+00    2.273229e+00   -5.275607e+00    4.182361e+00    4.665755e+00    7.624919e+00   -4.510621e-01    2.578212e+00    4.804265e+00    4.639786e+00   -9.092005e-01    1.504304e+00   -7.766286e-01 
  -7.034363e-01   -4.217628e-01   -4.843750e+00    2.175860e+00   -2.752275e+00   -1.672323e+00   -5.930553e+00    2.896454e+00   -7.871196e+00    5.205100e+00    2.691197e+00   -6.611102e+00    3.967855e+00   -1.181505e+00   -4.565401e-01    3.326437e-01   -1.376633e+00    3.168958e+00   -2.800820e+00    2.348333e+00   -9.497828e-01    4.265846e+00    7.901568e-01    3.082992e+00    4.435209e+00 
   3.435863e+00    5.419396e+00   -2.938755e-01   -3.331217e-01   -4.091062e+00    2.986458e+00   -1.458956e-01   -2.611205e+00    1.302166e+01   -4.356349e+00   -6.985198e+00    1.512346e+00    1.412277e+00   -2.435798e+00    1.448080e-01    8.292607e-01   -3.031188e+00   -2.523770e+00   -3.549848e+00    1.452477e+00    2.884530e-02   -1.279875e+00   -6.443381e+00    2.627783e-01   -5.136353e+00 
  -5.993343e+00   -2.978226e+00   -4.037855e-01    4.951128e-01    7.949281e-03   -2.173014e+00    5.260480e+00   -3.402498e-01   -1.264080e+01    4.815831e+00   -3.050528e+00   -3.564328e+00    5.832792e+00    3.155332e+00    2.679365e+00    5.086529e-01   -4.897516e-01   -1.445423e+00    4.015665e+00   -1.572524e+00   -1.998741e+00    8.600750e+00    1.153678e+00   -1.555563e+00   -1.972711e+00 
  -3.440856e+00   -2.060117e-01    3.572746e+00   -6.237745e+00   -1.047755e+00    1.362895e+00    3.449728e-01   -2.951745e-01    2.499487e+00   -4.785845e+00   -7.560785e+00    7.481094e+00   -1.424522e+00   -1.415296e+00   -3.274555e+00    5.142700e+00    8.453318e-01    2.336514e+00    3.836149e+00   -8.750033e-01   -2.150830e+00   -2.729636e-01   -3.850504e+00   -2.781971e+00    6.877708e-01 
  -1.946038e+00    5.271949e+00    2.505511e+00    4.361470e+00    1.795058e+00    3.752540e+00    1.470806e+00    2.694010e+00   -6.241955e-01   -2.432857e-01    6.186855e+00   -9.927102e+00   -1.914354e+00    2.406394e+00    5.411353e+00   -1.881585e+00   -2.675930e+00    1.037584e+01    4.354040e+00   -1.594333e+00    2.063246e+00   -3.052094e+00    1.038105e+00   -2.918043e+00   -2.571652e+00 
  -1.265040e+00    4.158030e-01   -1.193245e+01    7.585140e+00    2.054191e+00    3.792676e-01    2.984209e-01    5.877408e+00   -3.532618e+00    6.672170e+00    1.674904e+00   -6.057345e+00    4.331230e+00   -5.581704e+00   -2.657079e+00   -1.471415e+00    1.146322e+00   -6.591542e+00   -3.039013e+00    1.683851e+00    2.033416e+00    3.883066e+00    2.862235e+00   -2.054537e+00    2.011632e+00 
   2.708472e+00    3.887591e+00   -2.898189e-01   -1.211488e+01    5.172436e+00    2.414742e+00    3.499609e+00    4.869402e+00   -1.595833e+00   -5.317348e+00   -3.475518e+00    8.119254e+00    2.664440e+00   -3.203484e+00   -8.007501e-01    3.267132e+00   -2.336441e+00   -8.880075e+00    6.487150e+00    8.486037e+00   -1.921070e+00    1.100646e+00   -5.257605e+00   -3.635811e+00    1.936904e+00 
  -5.384509e+00   -9.037710e-01    1.694909e+00   -6.664552e+00    4.572509e+00   -7.586076e+00    5.069499e+00    5.863336e+00    2.346963e+00   -1.149686e+00    2.125935e-01    2.849289e-01   -1.875350e+00    6.998857e-01    1.429846e+00   -2.446744e+00    7.060939e+00    3.638679e+00    7.313350e-01   -7.421795e+00    4.125215e+00    3.865636e-02    8.250784e+00    8.587234e+00   -9.271523e-01 
  -5.271815e+00    3.432229e+00   -7.129265e+00   -8.285232e-01    3.910557e+00   -3.439982e+00    3.196880e+00   -3.512093e+00    1.950246e+00    1.378787e+00    1.126416e+00   -1.147783e+00   -8.605269e-01    2.084554e+00   -3.653127e+00    9.649887e-01    1.745267e+00    6.067319e+00    3.055198e+00    1.350902e+00    3.800111e+00    7.209169e-01    4.310981e+00   -2.995004e+00   -3.682189e-02 
   4.270766e+00   -2.318527e+00    8.242476e+00   -5.759323e+00   -2.574033e+00    2.769679e+00   -9.204095e+00   -6.511128e+00   -7.994418e+00    7.883299e-01   -4.032810e+00    6.317903e+00    3.488001e+00    1.099173e+00    1.888241e+00    1.948967e+00   -2.488520e+00   -3.595932e+00    5.809529e+00   -3.392212e+00   -9.226162e+00    5.746332e+00   -8.261797e-01    1.105249e-01   -1.618733e+00 
  -1.094484e+00   -3.429388e+00   -1.099181e+00    4.806682e+00    8.889944e+00   -1.529484e+00    4.688355e+00   -9.586550e+00   -4.748697e+00    6.132273e+00    5.286894e+00   -6.950437e+00    5.803605e-01    4.049650e+00    3.053732e+00   -1.908980e+00    9.579413e-01    3.833604e+00   -4.327229e+00   -4.236991e+00    2.869547e+00    1.772747e+00   -4.666304e+00    7.103457e-01    9.595014e-01 
   2.596013e+00   -4.787576e+00    1.353405e+00   -1.383531e+00    1.259715e+00    2.376813e+00   -1.069742e+00   -1.428503e+00   -1.628685e+00    1.048639e+00   -7.753601e+00   -1.160049e+00   -4.186727e+00    1.432664e+00   -5.834271e+00    4.875991e+00   -4.204177e+00   -6.996727e+00   -4.098629e+00    4.869958e-01   -5.880933e+00   -7.954807e+00    4.179958e-01    5.240721e+00    2.733997e+00 
  -3.220110e+00   -1.575163e+00    7.411835e+00   -2.006668e-01   -9.687246e+00    2.507488e+00   -2.362794e+00   -5.871657e+00   -2.833856e+00   -1.798720e+00   -6.048410e-01    9.339709e+00   -2.233711e+00   -1.664338e+00    4.407614e+00    4.918290e+00    7.934753e-01    3.183500e+00   -4.865016e+00    4.137689e+00   -6.158418e+00   -2.008239e-01   -8.316323e-01   -1.830890e+00    9.556652e-02 
  -6.855005e-01    1.802440e+00   -4.182038e+00   -1.674821e+00    3.097465e+00    1.919111e+00   -3.379767e+00   -5.886144e+00   -1.716183e+00    3.066953e+00   -1.110656e+00    1.014093e+01   -4.689993e+00   -2.549606e+00    6.298787e+00   -2.481587e+00    1.704059e+00    2.230013e+00   -6.337495e+00    1.988446e+00    2.606948e+00   -6.524385e+00    2.893359e-01   -2.481599e+00    5.460109e+00 
   6.352158e+00   -1.177337e+00   -4.280394e+00    2.105177e+00    3.440970e+00   -1.235083e+00    1.640321e+00    6.934670e+00    1.220608e+01    3.298817e+00   -8.241359e-01   -6.962511e+00    1.299423e+00   -4.384292e-01   -3.556523e+00   -4.688840e-01    5.385694e-01    6.780765e-01   -3.826887e+00    1.184959e+00    6.390171e+00   -7.553591e-01    4.518966e+00    2.274102e-01    3.877460e+00 
  -6.768816e+00   -5.034351e-01   -3.582418e+00   -3.060670e-02    1.188367e+00    1.345336e+00   -5.619774e+00    2.186074e+00    3.503419e+00    9.052557e-02    1.771717e+00   -7.456757e+00   -3.395104e+00    2.875666e+00   -5.672973e+00   -2.983922e-01    5.300770e+00   -5.783250e+00   -1.606631e+00   -6.207246e+00    1.963822e+00   -4.757562e+00    2.263417e+00    2.752123e+00   -6.289529e-01 
  -3.606709e+00   -3.115749e+00   -4.624759e+00    2.218976e+00   -6.218583e+00   -6.657244e-01    5.675864e+00    1.780738e+00   -7.519581e+00   -6.597680e+00    6.322050e-01    2.838884e+00    4.641276e+00    3.166474e+00    4.242664e+00   -2.886517e-01    2.214439e+00   -9.003175e-01    4.928115e+00   -4.639658e-01   -1.418735e+00    2.144921e+00   -1.713795e+00    3.004989e+00    1.313711e+00 
   5.881776e+00    5.255140e-01    1.122194e+01   -2.156185e+00   -5.421892e+00    7.043364e-01   -1.658437e+00   -2.940005e-01   -9.780586e-01   -4.234463e+00   -6.002165e+00    8.082376e+00   -3.796553e+00    9.030977e-01    3.714431e+00    9.215390e-01   -4.292186e+00    5.160897e+00   -2.353847e-01   -4.245837e+00   -1.028960e+00   -2.431932e+00    3.771602e+00   -3.370443e+00    6.204827e-01 
   9.453520e+00    2.944612e+00    4.872024e-01    3.345609e+00   -1.376826e+00    2.508798e+00    2.721708e+00    7.362165e+00    4.431352e+00    2.993117e+00    9.278060e+00   -5.146371e+00   -8.496648e-01    5.284870e+00   -1.226476e+00   -2.211886e+00   -3.697108e+00    1.034809e+01    9.341834e-01   -9.438173e+00   -2.698423e-01   -1.515060e+00   -1.445240e+00    1.476377e+00   -8.920115e+00 
   2.170544e-01    3.728083e+00    2.474252e-01   -3.422730e+00    8.866443e-01   -2.514075e-01   -1.089667e+00    5.160235e-01    4.852375e-01    2.068854e+00    7.660353e+00   -9.610605e+00    4.518318e+00   -4.191308e+00   -2.431325e+00    6.134237e-01   -3.999276e-01    8.252913e+00   -1.189459e-01   -2.075810e+00    2.876677e+00    3.992527e+00    5.078709e+00    5.897139e-01   -5.120892e+00 
  -5.851765e-01    2.030101e+00    5.147905e+00    8.702694e+00   -6.442419e+00    9.273593e-01    4.906693e+00    3.013074e+00   -5.457473e+00   -7.431295e+00   -2.946477e-01   -1.406117e+00    9.885460e-01    1.172514e+00    4.314202e+00   -3.209267e+00    2.313609e+00   -5.966163e+00    1.797211e+00    7.246355e+00   -2.387379e+00    5.439288e+00   -1.663149e+00    1.769959e+00    2.391875e-01 
  -1.947907e+00    4.194931e+00    3.576603e+00    2.556860e+00   -1.493855e+00   -1.440281e+00   -1.045707e+00   -4.361933e+00    3.146124e-01   -2.316333e+00    2.205440e+00    2.389949e+00    1.853339e+00    1.130638e-01   -8.641020e-01    5.123682e+00    6.417970e-01    1.250764e+01   -3.330839e+00   -5.371833e+00    1.384176e+00    4.741372e+00    3.471479e+00   -1.959466e+00   -8.313391e+00 
  -7.292998e-01   -2.158279e+00   -2.818948e+00   -2.306673e+00   -1.558265e-01   -2.096639e+00   -1.039376e+01   -7.383979e+00    6.162609e+00   -1.455003e+00   -7.773153e-01   -2.580324e-01    2.741458e+00    7.960532e-01    4.330625e+00   -6.921296e+00   -1.045855e+00   -2.787459e+00    2.205092e+00   -5.651346e+00    1.726827e+00    3.419244e+00    4.372738e+00    3.479823e+00   -5.017569e-01 


   4.495355e-02   -7.492334e-01   -5.219865e-04    1.006988e+00    1.398434e+00   -6.703599e-01    3.528308e+00   -2.611943e+00    1.331631e+00   -3.272292e+00 
  -2.289117e+00    4.774681e+00   -8.796051e+00    1.158744e+01   -3.453226e+00    5.852864e+00   -1.251883e+00   -1.323639e+01   -2.285485e+00    8.876900e+00 
   1.932697e+00    1.329560e+00    2.394518e+00    3.351269e+00   -3.453208e+00   -2.017869e+00    5.554872e+00   -1.079432e+00   -1.379764e+01    6.011511e+00 
   1.732047e+00    6.838937e+00   -8.717876e+00   -2.437157e+00    1.577839e+00    2.082808e+01   -1.287803e+00    2.106672e+00   -6.892262e+00   -1.541826e+01 
   1.660000e+00    3.202581e+00    1.853163e+01   -1.698683e+01    2.427397e-01   -3.433367e+00   -7.017583e+00   -2.552954e+00    7.643220e+00   -2.090729e+00 
  -6.654617e+00   -1.007519e+01   -1.233387e+01    6.532209e+00    1.622625e+00   -6.986991e+00    5.945209e+00    3.319235e+00   -2.743448e+00    2.162249e+01 
  -4.942529e+00    1.216105e+01    5.907986e+00    2.019147e+00   -1.826843e+00    2.046354e+00    3.289687e+00   -1.237531e+01   -7.144076e+00    1.582143e-01 
   2.822587e+00   -1.173904e+01    5.370502e+00    7.973539e+00    3.007870e+00   -1.232675e+01    5.257375e+00    3.172724e+00   -1.167340e+01    8.518531e+00 
   2.593245e+00    3.364381e+00    2.051533e+01   -2.009556e+01   -1.006131e+00   -5.861145e+00    5.079010e+00   -2.267267e+00   -5.771644e+00    2.740368e+00 
   5.148142e+00    6.903975e+00    7.609493e+00    1.165591e+01   -2.570009e+00   -2.234550e+01    8.555543e+00   -7.271122e+00   -4.022636e+00   -3.856304e+00 
  -1.074997e+00   -1.351237e+01   -3.217460e+00   -1.306728e+00    2.394176e-01   -8.011216e-01    2.350309e+00   -7.326675e+00    1.076951e+01    1.267469e+01 
  -2.226514e+00    3.404198e+00   -1.503779e+01    7.735463e+00   -3.337143e-01   -8.970488e+00   -6.034094e-01    4.756280e+00   -6.963870e+00    1.701829e+01 
   7.073750e+00   -1.567053e+00   -2.072865e+01    6.617646e-01    4.501687e+00    2.507332e+01   -1.207312e+00   -9.118848e+00    2.556666e+00   -7.003080e+00 
   9.494349e-01    7.337250e-01    1.120212e+00    1.807056e+00   -3.484904e+00   -5.438033e-03   -1.364232e+01    7.860318e+00    2.151392e+00    1.961939e+00 
  -4.699270e+00   -1.531510e+00   -4.146212e+00    2.984891e+00    3.739711e+00   -1.840434e+00    5.161915e+00    9.172187e+00    1.271728e+00   -1.104445e+01 
   1.559751e+00    1.835539e+00   -1.008229e+01   -6.125142e+00    2.078650e+00    7.181029e+00   -3.034160e+00   -8.301372e+00    4.458625e+00    1.112299e+01 
   2.428620e+00   -1.080071e+01    5.500657e+00    4.161626e+00    4.484780e+00    1.339927e+01   -2.956140e+00    2.019698e+00   -5.082171e+00   -1.318992e+01 
   4.043104e+00   -8.848053e+00    1.415112e+00   -9.361724e+00    2.274272e+00   -3.288255e+00    3.903765e+00    6.585797e+00    4.359313e+00   -2.432239e+00 
   1.772464e+00    8.339098e+00    1.825089e+01   -8.874444e+00    2.699499e+00   -2.419217e+01    5.513013e+00    2.051884e+00   -1.989541e+00   -3.528783e+00 
  -3.153650e+00    5.110656e+00   -8.090704e+00    4.525210e+00   -2.975621e+00    8.198981e+00   -2.309788e+00    2.201984e+00    4.959337e+00   -9.602607e+00 
  -3.789634e+00   -2.169827e+01    1.502885e+01   -3.112652e+00   -4.861090e-01    4.187323e+00   -4.258471e+00   -4.082111e-02    6.833577e+00    6.522387e+00 
   1.884602e+00   -1.200571e+01   -9.361410e+00    4.923547e-02    3.439460e+00   -3.640081e+00    5.340318e+00    4.097322e+00   -4.426295e+00    1.335170e+01 
   1.303488e+00    1.604019e+00    2.456608e+00   -3.416231e-01   -2.355116e+00    3.483977e-01   -1.854606e+01    1.158673e+01    2.422044e+00    1.805982e+00 
   2.207088e+00    1.519537e+01   -1.683421e+01   -4.626759e+00    2.710267e+00   -5.476030e+00    5.701789e+00    3.640675e+00    3.738704e+00   -6.361860e+00 
   1.293024e+00   -1.029404e+00   -1.427946e+01    2.362111e+00    2.802786e+00   -2.885884e+00    4.288171e+00    1.525712e+00    6.111580e+00    9.267069e-01 
  -2.864613e+00   -6.721324e+00   -1.322171e+01   -4.570947e-01    5.224192e+00    5.790664e+00    1.471536e+00   -6.677122e+00    1.659597e+01    7.769975e-01 


