2
24 25 25 6 
        6.178902e+00         1.869836e-01         6.156329e+00         1.815790e-01         1.375530e+01         1.329139e-01         1.441278e+01         1.250182e-01         3.257333e+01         8.698829e-02         3.231249e+01         8.679388e-02         3.101339e+01         8.942504e-02         1.022352e+01         8.655284e-02         1.482489e+01         7.426990e-02         1.382820e+01         6.536502e-02         3.007017e+01         3.189923e-02         2.962065e+01         3.118143e-02        -5.371270e+00         6.649909e-02         7.047502e+00         5.309589e-02        -5.412131e+00         4.605409e-02        -7.388780e-01         4.363687e-02        -1.751832e+01         2.621758e-02        -2.956507e+01         2.712035e-02        -2.966534e-01         2.938467e-02        -7.333436e+00         2.979005e-02        -1.916938e+01         2.706920e-02         4.799084e+00         4.229260e-02         2.390149e-01         4.254523e-02        -4.230370e+00         3.966074e-02         0.000000e+00         1.000000e+00         0.000000e+00         1.000000e+00         0.000000e+00         1.000000e+00         0.000000e+00         1.000000e+00         0.000000e+00         1.000000e+00         0.000000e+00         1.000000e+00 
1000
  -1.390365e-01    1.742782e-01    5.607521e-01    9.710055e-01    4.684099e-01   -3.168829e-02    2.248861e-01    7.213148e-01    3.861295e-01    1.045491e+00    8.291134e-01    9.182376e-01   -7.966937e-02    3.408635e-01   -2.458852e-01   -9.217868e-01   -1.124570e-01   -8.671215e-01   -1.425946e-02    8.855384e-01    3.139196e-01   -2.865117e-01    2.015024e-01   -5.196181e-01   -5.791483e-01 
  -1.002248e+00    6.565359e-01    2.247401e-01    1.046219e+00    5.013832e-01   -6.453781e-01    4.253978e-01   -1.668904e+00   -2.614187e-01    1.040509e+00    4.621581e-01    2.325922e-01   -3.822215e-01    2.937139e-01   -1.240731e-01   -9.387020e-01   -7.781338e-01   -2.412303e-02   -7.638274e-01    4.008909e-01   -1.132516e-01    3.359426e-01    7.324774e-01   -8.140864e-01   -7.119776e-01 
  -8.654560e-01    9.565290e-01   -8.540116e-03    7.352970e-01    7.173286e-01   -5.830473e-01    3.909538e-01   -1.012651e+00   -3.382801e-01    6.779857e-01    3.950399e-01   -2.203162e-02   -7.796841e-01    7.461183e-01    1.756009e-01   -3.977574e-01   -7.310272e-01   -4.212871e-01   -6.605337e-01    1.023821e+00   -1.684635e-01    1.045635e-01    5.705628e-01   -5.896348e-01   -5.250386e-01 
  -7.240108e-01    5.113274e-01   -2.003410e-01   -4.146796e-01   -3.464710e-01    4.527796e-01    7.851934e-02   -8.975419e-01   -1.505553e+00    1.705507e-02    6.805017e-01    2.556013e-01   -2.460534e-01    5.978246e-01    7.729750e-01    7.921102e-01   -1.553519e+00    4.166017e-01    1.242602e+00    3.668250e-01   -6.789886e-01   -9.067863e-01    9.709996e-02   -2.863765e-01    3.300295e-01 
  -3.078670e-01    4.324967e-01   -3.358280e-01   -4.337880e-01   -2.418576e-01    1.069530e+00   -2.902646e-01   -8.028488e-01   -1.093088e+00    6.060680e-01    1.335345e+00    4.630310e-01   -5.001528e-01    3.202015e-01    7.607440e-01    6.088793e-01   -1.894124e+00    3.743276e-01    1.351316e+00    6.336317e-01   -5.607636e-01   -7.758955e-01    1.071851e-01   -4.133484e-02    2.841150e-01 
  -4.921856e-01    4.299655e-01    1.245549e-01   -8.329462e-01   -1.743058e+00    4.410484e-01   -2.086635e-01    3.931581e-01   -2.435421e-01   -6.111528e-01    1.562230e+00   -1.629818e-01   -3.328940e-01    6.083955e-01    9.872485e-01    2.578945e-01   -6.700610e-01   -7.399980e-01    6.952585e-01   -6.183991e-01   -1.072638e+00   -7.963559e-02    1.482388e-01    4.826646e-01    2.398199e-01 
  -1.395460e-01    5.415240e-01    8.082528e-02   -1.790781e-01   -1.130742e+00    3.615128e-01    5.693858e-01    2.956744e-01   -1.144892e+00    4.851180e-01    1.412605e+00   -6.624748e-01   -3.110479e-01    8.937272e-01    1.474252e+00    6.685906e-01   -8.602109e-01   -6.677499e-01    3.015889e-01    6.750279e-01   -1.095933e+00   -5.117997e-01    6.600263e-01   -2.254248e-01    3.826167e-01 
  -6.467930e-01    4.669526e-01    9.470222e-02   -7.140330e-01   -1.668238e+00    1.360471e-01    7.933968e-02    7.442957e-01   -5.347783e-01   -3.216074e-01    1.497795e+00   -1.759176e-01   -4.589795e-01    7.085808e-01    1.065971e+00    2.367070e-01   -4.920561e-01   -3.796819e-01    5.901723e-01   -1.695943e-01   -1.072949e+00   -3.847397e-01    1.754479e-01    6.664326e-01    1.603793e-01 
  -2.329345e-01    3.668983e-03    8.506266e-01    4.114792e-02    5.325242e-01   -7.023144e-01    1.017012e+00   -3.094122e-01    6.811453e-02    9.395010e-01   -1.371883e-01   -5.746731e-01    1.431451e-01    2.318142e-01    3.055025e-01   -4.913202e-01   -3.961747e-02   -6.302182e-01   -5.647314e-01    9.910720e-01   -5.510335e-01    6.024486e-01   -1.070761e-01   -6.633520e-01   -3.923446e-01 
  -1.636780e-01    1.707058e-02    7.610936e-01   -8.326543e-02    3.274872e-02   -4.362911e-01   -2.097756e-01    5.182531e-01    2.030724e-01   -3.078165e-01    4.203065e-01   -1.085503e-01   -3.235606e-01    3.926234e-01    1.372128e+00   -1.573262e-01    8.231833e-02   -1.041279e+00   -8.869847e-01   -2.060139e-01   -1.157244e+00    6.349995e-01    4.668606e-01    3.097461e-01   -4.225960e-01 
   1.054449e+00   -1.634577e+00   -4.160687e-01   -1.243598e+00   -8.703519e-01    1.236992e+00   -2.658063e-01    1.989920e+00   -7.809071e-02   -7.524528e-01    9.532998e-03   -1.076317e+00    1.010929e+00   -7.511761e-01   -4.374241e-02    1.630486e+00    4.489082e-01   -4.299819e-02    1.533299e+00   -5.793237e-01   -2.291128e-01   -9.320362e-01   -1.180610e+00    2.994240e-01    1.415159e+00 
  -5.277781e-01    6.416765e-01   -6.557977e-01   -3.111497e-01   -4.007043e-01    9.890926e-01   -7.598860e-01   -1.098277e+00   -6.123614e-01   -7.281830e-02    8.536872e-01    6.101471e-01   -2.675733e-01    1.572460e-01   -4.193568e-02   -4.395612e-02   -8.972960e-01    5.107947e-01    9.193250e-01   -3.864316e-01    2.479516e-01   -5.758907e-01    6.877635e-01    8.024024e-01    4.655770e-03 
  -8.266916e-01    8.407175e-01   -6.927039e-01   -1.670540e-01   -1.043274e-01    5.273476e-01   -5.066555e-01   -1.143875e+00   -6.143236e-01   -2.389217e-01    6.789999e-01    7.286853e-01   -6.070505e-01    7.526209e-01   -1.968711e-01   -1.318150e-01   -9.360056e-01    8.417792e-01    4.104560e-01    9.483466e-02    3.810312e-01   -9.572752e-01    1.799172e-01    7.052956e-01   -3.557333e-01 
   2.663542e-02   -2.013872e-01    4.111647e-02    2.643383e-01    1.523467e+00   -4.594234e-01    9.694332e-01   -2.015100e+00   -8.764842e-01    2.365603e+00   -6.748186e-01    5.621611e-04    3.842832e-01   -2.261620e-01   -4.371384e-01   -2.386114e-01   -1.931830e+00   -1.926432e-01   -3.294299e-01    2.206194e+00    3.652747e-01   -1.462567e-01    8.909815e-02   -1.958270e+00   -1.284375e-01 
   2.823246e-02    6.938180e-03   -8.982347e-02    2.569087e-01   -1.623446e+00    2.590230e-01   -4.333774e-01    5.201880e-01   -2.024351e-01   -4.679341e-01    7.665008e-01   -3.230995e-01   -1.886099e-01    6.469587e-01    2.972042e-01   -3.475178e-01    5.085409e-01   -1.855951e-01    5.157765e-01   -6.908888e-01   -3.932981e-01   -2.323774e-01    5.534338e-01    8.252330e-01   -2.896851e-01 
   3.156710e-01   -2.392408e-01    1.788213e-01   -4.612527e-01    7.081237e-01    6.966345e-02   -4.143202e-01    6.049273e-01    1.122002e+00   -1.242189e+00   -8.388068e-01    3.604195e-01   -9.771825e-02   -2.514786e-01    3.470405e-01    5.978173e-02    1.308272e+00   -9.373190e-02   -4.755792e-01   -9.568646e-01   -7.558051e-02   -1.897757e-02   -1.003154e-01    6.644574e-01    5.089570e-01 
  -3.027130e-02   -4.754075e-01   -1.313961e-01   -1.496629e+00    4.468834e-01    5.293440e-01    5.851428e-01   -8.382328e-01   -1.439110e+00    1.017359e+00    6.678827e-01    2.869139e-01    3.732738e-01    5.285895e-03    2.754337e-01    1.459010e+00   -2.148549e+00   -3.682241e-02    1.457217e+00    1.189040e+00   -7.383239e-01   -1.313476e+00   -5.076590e-01   -6.943626e-01    1.027655e+00 
   1.383603e-01   -6.599529e-02    1.135837e+00    1.012268e+00    1.318664e+00   -1.294677e+00    1.702857e+00   -4.460810e-01   -7.757118e-02    1.706350e+00   -2.856531e-01   -6.756832e-01    4.056461e-01    5.012211e-02    1.779185e-01   -1.169948e+00   -4.323864e-02   -1.102856e+00   -1.699905e+00    1.628512e+00   -2.016323e-01    1.392734e+00    2.812948e-01   -2.031320e+00   -5.132574e-01 
   2.595977e-01   -1.083995e-01    1.030378e+00    8.458413e-01    1.262087e+00   -9.530187e-01    1.664866e+00   -9.442416e-01   -2.655127e-01    2.274768e+00   -2.834994e-01   -3.210214e-01    2.824376e-01   -6.367740e-01    3.353137e-01   -2.517561e-01   -6.182496e-01   -1.129103e+00   -8.481692e-01    2.027197e+00    1.584049e-01    5.872652e-01   -2.126701e-01   -2.529860e+00   -3.606993e-02 
  -3.140796e-02    4.716085e-01   -6.137182e-01   -1.021281e+00    2.160021e-01    1.619483e+00    4.742224e-01   -1.275922e+00   -1.808177e+00    1.165481e+00    7.577993e-01    2.111561e-01   -1.169105e-01   -1.222983e-02    4.341165e-01    1.548080e+00   -2.529918e+00    4.661395e-01    1.667913e+00    1.466872e+00   -1.083470e-01   -2.037143e+00    1.660395e-01   -6.752112e-01    6.209792e-01 
   6.834747e-02   -4.114353e-01    7.781763e-01    7.303803e-01   -9.703275e-03   -4.821858e-01    9.756979e-01    1.413171e-01    8.993480e-01    7.227416e-01   -9.594821e-01   -1.872272e-01   -1.481372e-03   -4.639009e-01   -2.428906e-01   -1.127512e+00    4.731813e-01   -5.746284e-01   -1.272325e+00    8.594253e-01    3.019684e-02    9.362717e-01   -8.126249e-02   -6.491502e-01   -6.728820e-01 
   2.153473e+00   -2.374749e+00   -7.390261e-01   -1.222597e+00   -3.502373e-01    8.379743e-01    4.539528e-01    2.548029e+00    2.279525e-01    1.161149e-01   -1.170065e+00   -1.279068e+00    2.052265e+00   -1.464193e+00   -1.321529e+00    9.926903e-01    1.172179e+00    3.783538e-01    1.221459e+00   -3.970422e-03    1.166339e+00   -8.348912e-01   -1.996385e+00   -1.642414e-02    1.319363e+00 
  -2.479703e-01    7.238067e-02   -2.073377e-01    2.905835e-01   -5.374158e-01    5.044530e-01    5.485599e-01   -5.095656e-01   -2.801663e-01    3.998401e-01    2.904881e-01   -3.719848e-01    3.147608e-01   -1.141943e-01   -4.283817e-01    2.382011e-01   -8.105795e-01    4.021741e-01    4.331977e-01    4.577710e-01    3.520042e-01   -3.421832e-01    1.548988e-01   -3.600383e-01    2.238205e-01 
   8.480318e-03   -2.663425e-02   -4.207655e-01   -2.007484e-01   -3.337326e-01    3.568381e-01    6.834760e-01   -5.693757e-01   -2.950450e-01    8.058626e-01   -2.405191e-01   -1.214296e-01    3.141636e-01   -3.213387e-01   -5.947265e-01    4.881432e-02   -6.020600e-01    4.732145e-02    4.214161e-01    6.584907e-01    3.109160e-01   -2.344119e-01   -3.018962e-01   -3.381530e-01    1.167839e-01 
   2.761461e-01   -4.626350e-01   -3.511051e-01    1.192300e-01    1.176150e-01    4.211231e-01    4.666027e-01   -2.789464e-01   -1.513679e-01    6.195019e-01   -3.219238e-01   -2.613507e-01    3.463093e-01   -9.153386e-02   -5.618465e-01   -3.804443e-01    7.773480e-02    2.156257e-01    2.177025e-01    3.746290e-01    7.153405e-01   -3.518221e-02   -3.434056e-01   -3.974264e-01   -3.605935e-01 


   1.285300e-01   -1.949006e-01    8.519299e-02    7.038324e-01    8.723458e-01   -2.065144e-03    2.500136e-01    7.728807e-02    1.186040e-01    1.704630e-03    3.256604e-01    5.057754e-01    6.401948e-02   -2.038160e-01    4.546126e-01    2.295673e-01   -1.021245e-01   -3.819574e-02    5.276035e-01    2.461700e-01    4.709799e-01   -2.263548e-01    7.166219e-02    1.033045e-02    3.525232e-01 
  -3.081626e-01    1.695355e+00   -1.695968e+00    1.706373e-01   -7.993458e-01    1.336301e+00   -6.209312e-01    3.179473e-01   -6.890235e-01   -2.902237e-01    7.859747e-01    1.559172e+00    1.643098e+00   -8.922940e-01    1.517629e+00   -5.824100e-01   -4.987765e-02   -9.079925e-01   -4.554291e-01    3.991019e-01    1.370469e+00    5.010332e-01    1.414837e+00    3.139101e-03   -4.442600e-01 
   3.943875e-01   -1.949084e+00    2.385713e+00    4.588428e-01    1.536971e+00   -1.663812e+00    5.729907e-01   -3.298280e-01    1.580457e+00    2.921135e-01   -5.776785e-02   -9.650705e-01   -1.873977e+00    1.236711e+00   -6.329331e-01    7.760675e-01    4.739031e-01    1.026027e+00    9.095929e-01   -4.908837e-01   -5.162225e-01   -4.243040e-01   -2.100028e+00   -8.844662e-02    1.336399e+00 
   1.587111e+00   -2.522916e-01   -2.392099e-01    3.571596e-01    3.905091e-01   -5.489745e-01   -8.300689e-01    1.413957e+00    1.780785e-01   -1.684721e+00   -5.002998e-01   -1.315305e+00    5.981980e-01   -4.493315e-01    3.111418e-01   -7.344321e-01    9.642882e-01   -3.815854e-01    1.368288e+00   -1.088653e+00    6.638718e-01    4.876960e-01    4.261898e-01    1.485142e+00   -9.446069e-01 
   1.737521e+00   -1.226711e+00    9.679306e-01    4.670334e-01    1.701066e+00   -9.752659e-02    9.918497e-02    7.448656e-02    1.727353e-01   -7.416305e-02    1.005168e+00    1.212267e-01   -1.114751e+00   -2.635963e-01   -8.249281e-01   -1.370578e-01    1.083664e+00    2.426655e-03    1.878539e+00   -1.454649e+00   -6.776421e-01   -1.931868e+00   -1.161348e+00    5.249421e-01   -5.340311e-01 
   1.274866e+00   -8.683748e-02   -3.059507e-01    3.282351e-01    1.964568e+00    1.379933e+00   -1.120154e+00   -3.461985e-03   -1.850241e+00    4.905135e-01   -3.524923e-01   -4.639433e-01   -1.287151e+00   -2.220513e-01    2.297002e+00   -7.963903e-01    9.564040e-01   -4.906029e-03   -4.246477e-01   -9.260050e-01    2.383197e+00   -9.359538e-01    4.111430e-01    9.271766e-02    1.280472e+00 
  -1.881265e+00    1.349829e-01    6.070473e-02    3.465820e-01   -2.982710e-01   -7.637386e-02    1.485347e+00   -1.617035e+00    4.371122e-01    1.068375e+00    6.930413e-01    1.867231e+00   -5.574041e-01    4.438977e-01   -6.395965e-01    1.428150e+00   -2.208492e+00    8.525912e-01   -5.996941e-01    2.149662e+00    9.042415e-02    2.509557e-01    2.373183e-01   -1.733635e+00    1.936547e+00 
   8.600553e-01    6.872226e-01   -5.123396e-01    4.479881e-01    7.813998e-02   -8.906081e-03   -1.723863e+00    1.408417e+00    2.107423e-01   -1.139563e+00   -6.520854e-01    1.465517e-03   -4.000607e-01    6.691180e-01    1.823306e+00   -2.059622e+00    2.035638e-01    7.217719e-01    1.510633e+00   -4.950149e-01    1.512039e+00   -1.646702e+00    4.180888e-01    9.860376e-01   -2.878642e-01 
  -1.132856e+00    2.060794e+00   -2.163730e+00   -3.089459e-01   -3.014054e-01    4.441923e-01    8.915192e-01    6.880408e-01   -3.082687e-01   -3.107356e-01    1.676827e+00    9.025459e-01    3.966894e+00   -2.385502e+00   -2.659105e-01    1.147583e+00   -3.710352e-01   -2.369486e+00   -6.117787e-01    7.355266e-01   -2.388502e-01    2.642613e+00    1.902750e+00    1.054489e-01   -2.133699e+00 
   1.658752e+00   -6.837971e-01    5.005797e-01    7.357101e-01    2.336001e+00    1.314390e+00    1.052852e+00   -5.585362e-02   -1.258535e+00    2.983855e-02    1.718105e+00    7.655416e-02    5.458906e-01   -1.944512e+00   -6.041594e-01    9.342089e-01    8.678492e-01   -1.921820e+00    6.297654e-02   -7.512110e-01   -3.640604e-01    9.166152e-01   -5.509356e-01   -1.807008e-01   -1.392225e+00 
   3.771601e-01    2.460373e-01   -4.620802e-01   -3.905475e-02   -7.432258e-01   -4.255618e-01   -2.639646e+00    1.363595e+00    2.340425e-01   -1.054697e+00   -1.716080e+00    6.772952e-01   -1.318527e+00    1.784528e+00    2.510740e+00   -2.003881e+00    4.825170e-01    1.998820e+00    1.258921e+00   -6.365431e-01    2.079004e+00   -3.266640e+00   -6.652369e-02    1.432052e+00    1.433505e+00 
  -1.390684e+00   -1.094141e+00    6.301691e-01    3.738555e-01   -7.519995e-01   -2.763570e+00    4.453339e-01    5.070845e-01    2.886104e+00   -1.639712e-01   -8.234912e-01   -3.298292e-01    1.945166e-01    2.022665e+00   -1.086192e+00    7.143338e-03   -6.546002e-01    1.575155e+00    1.201867e+00    1.394578e+00   -8.574249e-01   -6.287176e-01   -1.006614e+00    3.712391e-01    1.196293e+00 
   3.220546e-01   -1.097645e+00    1.053290e+00    4.523613e-01    1.366134e+00   -8.527975e-02    7.631287e-01   -9.215722e-01   -1.374191e-01    8.241874e-01    2.607384e-01   -4.116268e-01   -1.083755e+00    1.175896e-01   -4.423712e-01    6.904454e-01   -1.060650e-01    1.930351e-01   -9.179727e-02   -1.259981e-01   -2.303462e-01    7.502760e-01   -6.427508e-01   -1.028258e+00    9.621931e-01 
  -7.170873e-01    1.350850e+00   -1.624644e+00    3.391214e-01   -3.107987e-01    8.682059e-01   -8.465058e-01   -5.922315e-02   -1.070950e+00   -2.598875e-01    6.458550e-01    1.633427e+00    1.437103e+00   -1.577574e-01    1.611962e+00   -9.065708e-01   -5.429475e-01   -1.279137e-01   -3.424961e-01    2.895777e-01    1.450828e+00   -4.129833e-01    1.204044e+00    3.279971e-01   -6.561289e-02 
   7.370119e-02   -8.158297e-01    1.256661e+00    2.019229e-01    6.288719e-01   -1.285502e+00    5.458433e-01    7.670627e-02    1.509538e+00   -4.474576e-01   -3.101668e-01   -1.202822e+00   -3.474969e-01    6.986483e-01   -9.429884e-01    2.212600e-01    1.432188e-01    5.561738e-01    1.335240e+00    1.819521e-01   -9.792470e-01   -4.656612e-01   -1.307831e+00    3.521013e-01    5.863799e-01 
   1.681415e-01   -5.924161e-01    1.021916e+00    2.779560e-01   -8.779196e-01   -1.729329e+00   -4.262416e-01    1.208008e+00    1.617269e+00   -1.564953e+00   -1.739062e+00   -1.835645e+00    5.722777e-01    2.227690e-01    3.884117e-02    2.719132e-01    5.030921e-01    1.169555e-01    5.635298e-01   -4.375866e-01    9.187627e-02    1.572149e+00   -8.518636e-01    1.122737e+00    1.942502e-01 
  -1.850361e+00    1.668117e+00   -1.421398e+00   -1.681684e-01   -1.685210e+00   -4.276414e-01   -4.106641e-01    2.086217e-02    1.561138e-01    2.199109e-01   -9.228067e-01    7.832092e-01    9.159321e-01    8.665098e-01    1.652941e+00    1.170351e-01   -1.730388e+00    2.411242e-01   -9.050851e-01    1.235556e+00    1.091551e+00    1.163891e+00    1.583743e+00   -4.612114e-02    2.122312e+00 
   1.553334e+00    6.769240e-01   -8.454550e-01    3.910851e-01    1.734315e+00    1.816957e+00    1.247082e+00    4.228049e-01   -1.870611e+00   -4.418149e-01    2.324402e+00    4.749854e-01    1.983392e+00   -3.060943e+00   -1.554418e-01    8.180784e-01    1.291124e+00   -2.990596e+00   -6.586979e-01   -1.107474e+00   -9.815982e-02    1.874881e+00    5.653633e-01    7.569385e-01   -2.743881e+00 
  -1.098265e+00   -1.527421e-01    2.662656e-01    4.001232e-01    1.205671e+00    4.748249e-01    1.063810e+00   -1.205003e+00   -4.162964e-01    1.569881e+00    1.149340e+00    1.782680e+00   -9.661605e-01    1.304635e-01   -4.358694e-01    8.757720e-01   -1.376527e+00    4.073293e-01   -6.730680e-01    8.786726e-01   -3.036766e-01   -4.298269e-01    3.142702e-01   -1.500401e+00    1.683944e+00 
  -2.906080e+00    2.028805e-01   -5.793463e-01    3.705751e-01   -1.665459e+00   -1.553552e+00    7.703278e-01   -1.156301e+00    1.523864e+00    1.272457e+00   -4.330794e-01    1.650538e+00    1.797052e-01    1.873142e+00    3.217541e-01    9.404811e-01   -2.096274e+00    1.181670e+00   -1.601115e-01    2.860165e+00   -2.920754e-01   -5.403581e-01    7.443795e-01   -7.625290e-01    2.606025e+00 
   1.153839e-01    4.618120e-01    1.697488e-01    3.538647e-01   -9.619293e-01   -8.465164e-01   -2.460840e+00    8.772292e-01    7.133593e-01   -1.094151e+00   -2.052004e+00    1.384484e-01   -1.512770e+00    1.785450e+00    2.212314e+00   -1.979245e+00    2.087950e-01    1.703204e+00    1.265667e+00   -5.846387e-01    2.033487e+00   -2.494103e+00    5.169697e-01    1.212743e+00    1.024508e+00 
  -3.344989e-01    5.113468e-01   -3.888811e-01    7.289867e-01    1.280351e+00    1.552388e+00    2.838973e-01   -1.139744e+00   -1.110490e+00    1.290137e+00    1.724222e+00    2.423711e+00   -1.067068e+00    1.348614e-01    1.526992e-01    3.472083e-02   -7.431554e-01    2.505070e-01   -5.921106e-02    4.278566e-01    2.416169e-01   -2.012049e+00    4.826691e-01   -1.226990e+00    1.677948e-01 
   1.374569e+00   -1.406862e-01    3.070568e-01   -1.742507e-01    1.190214e+00    3.293005e-01   -1.530678e-01    1.698077e+00   -4.108277e-01   -1.479018e+00    7.217638e-01   -1.162883e+00    1.095150e+00   -1.523803e+00    2.108599e-01   -5.493847e-01    2.229730e+00   -1.279968e+00    1.163342e+00   -2.146567e+00   -2.396969e-01    1.126831e-01   -4.870408e-01    1.457964e+00   -2.348958e+00 
   5.908237e-01   -1.284765e+00    1.317864e+00    7.589950e-01    7.769495e-01   -8.945718e-01   -2.157833e-01    6.339000e-01    1.152178e+00   -5.685987e-01   -4.475710e-01   -7.668654e-01   -5.955320e-01    8.656041e-01   -3.594457e-01    1.542685e-03    7.116220e-01    7.043646e-01    1.537356e+00   -5.046480e-01   -8.164111e-01   -6.015377e-01   -1.263843e+00    5.563587e-01    6.198294e-01 
  -1.139282e+00   -1.325817e-01    4.192197e-01    5.784759e-01    6.058267e-01   -5.934187e-01    2.526150e+00   -9.773201e-01    7.502667e-01    9.900694e-01    2.046872e+00    4.785364e-01    1.624780e+00   -1.416467e+00   -2.020811e+00    2.349126e+00   -7.648241e-01   -1.136215e+00   -5.682456e-01    6.565290e-01   -1.908336e+00    2.029113e+00   -6.078251e-01   -8.992151e-01   -2.940349e-01 
  -1.018252e+00    1.602398e+00   -1.118176e+00    7.466318e-02   -1.002602e+00   -2.147839e-01   -2.884902e-01   -1.609689e-01   -2.368456e-01   -4.324290e-01   -3.126698e-01    6.557539e-01    1.429889e+00    1.699525e-01    1.547809e+00   -2.342942e-01   -9.559862e-01   -1.051853e-01   -9.709309e-01    8.488233e-01    1.175164e+00    8.229584e-01    1.099241e+00   -5.259733e-02    6.784462e-01 


  -3.039895e+00   -2.423009e+00   -3.725017e+00   -2.655695e+00   -3.398137e+00   -2.988005e+00 
  -6.575174e+00   -6.997201e+00    6.929298e+00    3.355078e+00   -1.310459e+01    6.382311e+00 
   3.996106e+00   -6.845949e+00    4.413653e+00   -6.589891e+00    7.602679e+00   -9.591255e+00 
  -7.527673e+00    4.416900e+00   -9.423979e+00    4.012225e+00   -9.894943e+00    7.384997e+00 
  -3.548799e+00   -2.322160e+00   -4.099072e+00   -3.054122e+00   -3.978850e+00   -3.132616e+00 
  -2.783981e+00   -1.361503e+00    1.223671e+00   -8.823254e-01   -1.688458e+01    2.555493e+00 
   5.008080e+00   -5.183762e+00    7.894672e+00   -5.214766e+00   -8.785577e+00   -2.567595e+00 
   4.297564e+00    3.550439e+00   -1.034432e+01    6.764049e+00   -6.425095e+00   -9.729030e+00 
  -7.575388e+00   -8.682322e+00    3.117836e+00    2.097825e+00    2.643653e+00    9.487161e-01 
  -8.173876e+00    3.182835e+00   -1.260230e+01    2.419343e+00    4.614395e+00   -1.379965e+00 
   4.785885e+00    5.761226e+00   -5.676459e+00   -5.113416e+00   -5.651668e+00   -3.802578e+00 
  -8.825312e-01    1.689399e+00    2.700473e+00    1.472055e+00   -7.861753e+00   -1.085864e+01 
  -2.842379e+00    3.301443e+00    3.050131e+00   -9.000256e+00    2.282978e+00   -9.131253e+00 
   2.516525e+00   -9.441893e+00    4.219726e-01    5.760239e+00    5.927391e+00   -1.356491e+01 
  -7.298951e+00    5.578851e+00   -8.199271e+00   -9.175724e+00    5.544119e+00    4.296874e+00 
   2.069875e+00   -1.089391e+01    1.951891e+00   -9.984526e+00   -1.155434e+00    5.369172e+00 
   4.540477e+00    2.282526e+00   -9.770617e+00    4.450271e+00   -5.749453e+00   -8.454414e+00 
  -9.012905e+00   -7.932960e+00    3.605063e+00    3.705735e+00   -6.293509e+00    5.178781e+00 
  -8.253544e+00    4.747946e+00   -7.231711e+00   -8.155558e+00    3.070087e+00    5.491646e+00 
  -1.196431e+01    1.274926e+00    7.243881e-01   -2.134892e+00   -2.528978e-01   -2.140353e+00 
   3.686105e+00    5.447589e+00   -9.327129e+00   -5.334146e+00    5.194605e+00   -8.827654e+00 
   2.365191e+00   -8.707962e+00    9.792110e-01   -8.697689e+00   -1.391905e+00    3.287509e+00 
   8.208575e+00   -6.838737e+00   -7.686717e+00    8.752511e+00   -4.210731e+00   -7.839495e+00 
   4.970887e+00   -5.776106e+00    4.134449e+00   -6.832759e+00    5.361669e+00   -8.922497e+00 
  -8.931541e+00   -7.749938e+00    2.531346e+00    2.230769e+00    2.084443e+00    1.194930e+00 
   2.782644e+00    1.143858e+00   -1.262447e+01   -1.021292e+01    1.885286e+00    3.254063e+00 


